{"learner":{"attributes":{"best_iteration":"349","best_ntree_limit":"350"},"feature_names":[],"feature_types":[],"gradient_booster":{"model":{"gbtree_model_param":{"num_trees":"350","size_leaf_vector":"0"},"tree_info":[0,0,0,0,0,0,0,0,0,0,0,0,0,0,0,0,0,0,0,0,0,0,0,0,0,0,0,0,0,0,0,0,0,0,0,0,0,0,0,0,0,0,0,0,0,0,0,0,0,0,0,0,0,0,0,0,0,0,0,0,0,0,0,0,0,0,0,0,0,0,0,0,0,0,0,0,0,0,0,0,0,0,0,0,0,0,0,0,0,0,0,0,0,0,0,0,0,0,0,0,0,0,0,0,0,0,0,0,0,0,0,0,0,0,0,0,0,0,0,0,0,0,0,0,0,0,0,0,0,0,0,0,0,0,0,0,0,0,0,0,0,0,0,0,0,0,0,0,0,0,0,0,0,0,0,0,0,0,0,0,0,0,0,0,0,0,0,0,0,0,0,0,0,0,0,0,0,0,0,0,0,0,0,0,0,0,0,0,0,0,0,0,0,0,0,0,0,0,0,0,0,0,0,0,0,0,0,0,0,0,0,0,0,0,0,0,0,0,0,0,0,0,0,0,0,0,0,0,0,0,0,0,0,0,0,0,0,0,0,0,0,0,0,0,0,0,0,0,0,0,0,0,0,0,0,0,0,0,0,0,0,0,0,0,0,0,0,0,0,0,0,0,0,0,0,0,0,0,0,0,0,0,0,0,0,0,0,0,0,0,0,0,0,0,0,0,0,0,0,0,0,0,0,0,0,0,0,0,0,0,0,0,0,0,0,0,0,0,0,0,0,0,0,0,0,0,0,0,0,0,0,0,0,0,0,0,0,0,0,0,0,0,0,0,0,0,0,0,0,0],"trees":[{"base_weights":[-1.0465585E0,-1.742996E0,-2.1862859E-1,-1.876362E0,-1.224086E0,-6.6985077E-1,8.5107887E-1,-1.8821429E0,-3.1578946E-1,-1.7902265E0,-9.020134E-1,-9.568986E-1,-2.0148961E-1,7.5386995E-1,1.854251E0,-1.9250916E0,-1.6789969E0,5.882353E-1,-8.8E-1,-1.8033574E0,2.2222222E-1,-1.2679739E0,-3.125E-1,-1.4890372E0,-7.760618E-1,-8.77907E-1,4.8205677E-2,-3.3962265E-1,8.5016835E-1,1.8838174E0,4E-1],"categories":[],"categories_nodes":[],"categories_segments":[],"categories_sizes":[],"default_left":[true,true,true,true,true,true,true,true,true,true,true,true,true,true,true,false,false,false,false,false,false,false,false,false,false,false,false,false,false,false,false],"id":0,"left_children":[1,3,5,7,9,11,13,15,17,19,21,23,25,27,29,-1,-1,-1,-1,-1,-1,-1,-1,-1,-1,-1,-1,-1,-1,-1,-1],"loss_changes":[3.0028472E3,1.934668E2,1.1497003E3,1.9689941E1,1.0436932E2,2.2499768E2,6.752246E1,1.6311523E1,5.3632197E0,5.9434204E0,7.996637E1,9.875543E1,1.0775716E2,6.831357E1,1.901535E0,0E0,0E0,0E0,0E0,0E0,0E0,0E0,0E0,0E0,0E0,0E0,0E0,0E0,0E0,0E0,0E0],"parents":[2147483647,0,0,1,1,2,2,3,3,4,4,5,5,6,6,7,7,8,8,9,9,10,10,11,11,12,12,13,13,14,14],"right_children":[2,4,6,8,10,12,14,16,18,20,22,24,26,28,30,-1,-1,-1,-1,-1,-1,-1,-1,-1,-1,-1,-1,-1,-1,-1,-1],"split_conditions":[5E-1,1.25E1,1.25E1,2.2185E3,2.95E1,9.5E0,1.7825E3,4.05E1,1.254505E5,2.116E3,4.45E1,8.5E0,3.35E1,3.1E1,5E-1,-1.9250916E-1,-1.678997E-1,5.8823533E-2,-8.8E-2,-1.8033575E-1,2.2222223E-2,-1.267974E-1,-3.125E-2,-1.4890371E-1,-7.760618E-2,-8.77907E-2,4.820568E-3,-3.3962265E-2,8.501684E-2,1.8838175E-1,4.0000003E-2],"split_indices":[33,2,2,4,0,2,4,5,1,4,5,2,0,5,6,0,0,0,0,0,0,0,0,0,0,0,0,0,0,0,0],"split_type":[0,0,0,0,0,0,0,0,0,0,0,0,0,0,0,0,0,0,0,0,0,0,0,0,0,0,0,0,0,0,0],"sum_hessian":[5.2075E3,2.82775E3,2.37975E3,2.2475E3,5.8025E2,1.674E3,7.0575E2,2.239E3,8.5E0,2.0875E2,3.715E2,1.03725E3,6.3675E2,6.45E2,6.075E1,1.84125E3,3.9775E2,3.25E0,5.25E0,2.075E2,1.25E0,2.285E2,1.43E2,2.6125E2,7.76E2,1.71E2,4.6575E2,5.2E1,5.93E2,5.925E1,1.5E0],"tree_param":{"num_deleted":"0","num_feature":"108","num_nodes":"31","size_leaf_vector":"0"}},{"base_weights":[-9.506081E-1,-1.5841216E0,-2.086872E-1,-1.6482457E0,1.9653261E0,-3.9593893E-1,1.942991E0,-1.6897815E0,-9.1326094E-1,6.7452353E-1,2.0402E0,-7.6101404E-1,5.692343E-1,-1.699558E0,1.3905442E-1,-1.5791727E0,-6.50035E-1,1.387926E0,-5.802889E-1,5.043543E-1,2.0795434E0,-8.255902E-1,9.8906654E-1,4.3992317E-1,1.6343441E0],"categories":[],"categories_nodes":[],"categories_segments":[],"categories_sizes":[],"default_left":[true,true,true,true,true,true,false,true,true,true,true,true,true,false,false,false,false,false,false,false,false,false,false,false,false],"id":1,"left_children":[1,3,5,7,9,11,-1,13,15,17,19,21,23,-1,-1,-1,-1,-1,-1,-1,-1,-1,-1,-1,-1],"loss_changes":[2.433727E3,6.390005E2,9.622623E2,8.22334E1,3.4584808E0,7.742798E2,0E0,4.665674E1,2.5084717E1,4.597835E0,1.7783203E0,1.809469E2,8.2373E1,0E0,0E0,0E0,0E0,0E0,0E0,0E0,0E0,0E0,0E0,0E0,0E0],"parents":[2147483647,0,0,1,1,2,2,3,3,4,4,5,5,7,7,8,8,9,9,10,10,11,11,12,12],"right_children":[2,4,6,8,10,12,-1,14,16,18,20,22,24,-1,-1,-1,-1,-1,-1,-1,-1,-1,-1,-1,-1],"split_conditions":[5E-1,7.0735E3,5.0955E3,1.35E1,8.296E3,1.25E1,1.942991E-1,2.2185E3,3.35E1,7.4365E3,1.8E1,1.7825E3,1.7825E3,-1.699558E-1,1.3905442E-2,-1.5791728E-1,-6.500351E-2,1.387926E-1,-5.8028888E-2,5.043543E-2,2.0795433E-1,-8.255902E-2,9.890666E-2,4.399232E-2,1.6343442E-1],"split_indices":[33,3,3,2,3,2,0,4,0,3,5,4,4,0,0,0,0,0,0,0,0,0,0,0,0],"split_type":[0,0,0,0,0,0,0,0,0,0,0,0,0,0,0,0,0,0,0,0,0,0,0,0,0],"sum_hessian":[5.1776597E3,2.7922607E3,2.3853987E3,2.7432373E3,4.902357E1,2.1951775E3,1.902213E2,2.595273E3,1.479642E2,3.2364783E0,4.578709E1,1.5928834E3,6.0229395E2,2.5815435E3,1.37296095E1,4.0502148E1,1.0746206E2,1.9957473E0,1.240731E0,1.4887877E0,4.42983E1,1.5367087E3,5.617471E1,5.38348E2,6.3945866E1],"tree_param":{"num_deleted":"0","num_feature":"108","num_nodes":"25","size_leaf_vector":"0"}},{"base_weights":[-8.6284864E-1,-1.4576738E0,-1.7601582E-1,-1.5190915E0,1.7783548E0,-5.5605286E-1,7.2109205E-1,-1.5377936E0,-1.8258065E-1,5.5955124E-1,1.8416235E0,-6.89637E-1,1.7994909E0,5.475391E-1,1.734625E0,-1.5476145E0,2.675436E-1,-1.2409416E0,3.6127383E-1,-5.7196397E-1,1.2756329E0,-1.4074166E0,-5.4690254E-1,1.8209882E0,5.6341887E-1,4.3650594E-1,1.5169711E0,1.7441832E0,5.180333E-1],"categories":[],"categories_nodes":[],"categories_segments":[],"categories_sizes":[],"default_left":[true,true,true,true,true,true,true,true,true,true,false,true,true,true,true,false,false,false,false,false,false,false,false,false,false,false,false,false,false],"id":2,"left_children":[1,3,5,7,9,11,13,15,17,19,-1,21,23,25,27,-1,-1,-1,-1,-1,-1,-1,-1,-1,-1,-1,-1,-1,-1],"loss_changes":[2.0923E3,5.482075E2,8.112357E2,6.706006E1,2.9471893E0,5.270877E2,1.2361191E2,4.7518555E1,2.2501583E1,3.9560575E0,0E0,1.613274E2,1.3645325E0,6.457402E1,2.949829E-1,0E0,0E0,0E0,0E0,0E0,0E0,0E0,0E0,0E0,0E0,0E0,0E0,0E0,0E0],"parents":[2147483647,0,0,1,1,2,2,3,3,4,4,5,5,6,6,7,7,8,8,9,9,11,11,12,12,13,13,14,14],"right_children":[2,4,6,8,10,12,14,16,18,20,-1,22,24,26,28,-1,-1,-1,-1,-1,-1,-1,-1,-1,-1,-1,-1,-1,-1],"split_conditions":[5E-1,7.0735E3,1.25E1,1.45E1,8.296E3,5.0955E3,5.0955E3,2.2185E3,3.25E1,1.35E1,1.8416236E-1,8.5E0,6.95E1,1.7825E3,7.8E1,-1.5476145E-1,2.6754363E-2,-1.24094166E-1,3.6127385E-2,-5.7196397E-2,1.2756328E-1,-1.4074166E-1,-5.4690253E-2,1.8209882E-1,5.6341887E-2,4.3650594E-2,1.5169711E-1,1.7441832E-1,5.180333E-2],"split_indices":[33,3,2,2,3,3,3,4,0,2,0,2,0,4,0,0,0,0,0,0,0,0,0,0,0,0,0,0,0],"split_type":[0,0,0,0,0,0,0,0,0,0,0,0,0,0,0,0,0,0,0,0,0,0,0,0,0,0,0,0,0],"sum_hessian":[5.120968E3,2.7436943E3,2.3772732E3,2.6931116E3,5.058286E1,1.6701406E3,7.0713257E2,2.6557976E3,3.7313896E1,2.9819965E0,4.7600864E1,1.5811785E3,8.896224E1,6.050643E2,1.0206834E2,2.6415706E3,1.4227033E1,1.2230716E1,2.5083181E1,1.2337489E0,1.7482476E0,2.608022E2,1.3203762E3,8.697638E1,1.9858642E0,5.441865E2,6.087771E1,1.008424E2,1.2259331E0],"tree_param":{"num_deleted":"0","num_feature":"108","num_nodes":"29","size_leaf_vector":"0"}},{"base_weights":[-7.863661E-1,-1.3572679E0,-1.4447051E-1,-1.4115915E0,1.5903385E0,-3.0060104E-1,1.6413016E0,-1.4924283E0,-1.0870891E0,3.1632355E-1,1.6662234E0,-8.424504E-1,1.4750664E-1,-1.4968628E0,2.2719762E-1,-1.2864413E0,-6.559649E-1,-9.5383435E-1,1.2280838E0,3.0973768E-1,1.7049387E0,-8.9730227E-1,7.4719214E-1,-4.6113026E-1,3.3419898E-1],"categories":[],"categories_nodes":[],"categories_segments":[],"categories_sizes":[],"default_left":[true,true,true,true,true,true,false,true,true,true,true,true,true,false,false,false,false,false,false,false,false,false,false,false,false],"id":3,"left_children":[1,3,5,7,9,11,-1,13,15,17,19,21,23,-1,-1,-1,-1,-1,-1,-1,-1,-1,-1,-1,-1],"loss_changes":[1.8423481E3,4.2834033E2,6.6070703E2,6.693164E1,4.1739044E0,5.290548E2,0E0,1.6274414E1,4.42666E1,5.7663965E0,1.869667E0,8.6662964E1,1.3573378E2,0E0,0E0,0E0,0E0,0E0,0E0,0E0,0E0,0E0,0E0,0E0,0E0],"parents":[2147483647,0,0,1,1,2,2,3,3,4,4,5,5,7,7,8,8,9,9,10,10,11,11,12,12],"right_children":[2,4,6,8,10,12,-1,14,16,18,20,22,24,-1,-1,-1,-1,-1,-1,-1,-1,-1,-1,-1,-1],"split_conditions":[5E-1,7.0735E3,5.0955E3,1.25E1,8.296E3,9.5E0,1.6413017E-1,2.3915E3,4.35E1,1.15E1,2.25E1,1.7825E3,3.35E1,-1.4968628E-1,2.2719761E-2,-1.2864414E-1,-6.559649E-2,-9.5383435E-2,1.2280839E-1,3.0973768E-2,1.7049387E-1,-8.9730226E-2,7.471921E-2,-4.6113025E-2,3.34199E-2],"split_indices":[33,3,3,2,3,2,0,4,5,2,0,4,0,0,0,0,0,0,0,0,0,0,0,0,0],"split_type":[0,0,0,0,0,0,0,0,0,0,0,0,0,0,0,0,0,0,0,0,0,0,0,0,0],"sum_hessian":[5.0269644E3,2.6600244E3,2.3669397E3,2.6123997E3,4.7624752E1,2.1774006E3,1.8953905E2,2.0885273E3,5.238725E2,2.967782E0,4.465697E1,9.852101E2,1.1921906E3,2.0832844E3,5.242762E0,3.5687103E2,1.6700142E2,1.220867E0,1.7469151E0,1.4889328E0,4.3168037E1,9.527695E2,3.2440567E1,2.7950488E2,9.1268567E2],"tree_param":{"num_deleted":"0","num_feature":"108","num_nodes":"25","size_leaf_vector":"0"}},{"base_weights":[-7.195097E-1,-1.2694062E0,-1.12782896E-1,-1.3219386E0,1.5475214E0,-2.481273E-1,1.5382862E0,-1.4051285E0,-9.881201E-1,-3.3185676E-1,1.1956402E0,1.5431572E0,4.4948652E-1,-1.4116573E0,-1.10319845E-1,-1.0134608E0,1.4985925E0,-4.6233442E-1,4.2151833E-1,1.6266743E0,-3.4817857E-1],"categories":[],"categories_nodes":[],"categories_segments":[],"categories_sizes":[],"default_left":[true,true,true,true,false,true,true,true,true,true,true,false,false,false,false,false,false,false,false,false,false],"id":4,"left_children":[1,3,5,7,-1,9,11,13,15,17,19,-1,-1,-1,-1,-1,-1,-1,-1,-1,-1],"loss_changes":[1.6272034E3,3.806577E2,5.1883057E2,6.837695E1,0E0,2.597153E2,2.3934937E-1,1.6824707E1,3.3312347E1,1.9957877E2,7.895726E1,0E0,0E0,0E0,0E0,0E0,0E0,0E0,0E0,0E0,0E0],"parents":[2147483647,0,0,1,1,2,2,3,3,5,5,6,6,7,7,8,8,9,9,10,10],"right_children":[2,4,6,8,-1,10,12,14,16,18,20,-1,-1,-1,-1,-1,-1,-1,-1,-1,-1],"split_conditions":[5E-1,7.0735E3,5.0955E3,4.35E1,1.5475214E-1,1.7825E3,8.1E1,2.2185E3,2.3915E3,5E-1,1.9895E3,1.5431572E-1,4.4948652E-2,-1.4116573E-1,-1.1031984E-2,-1.01346076E-1,1.4985925E-1,-4.623344E-2,4.2151835E-2,1.6266744E-1,-3.4817856E-2],"split_indices":[33,3,3,5,0,4,0,4,4,42,4,0,0,0,0,0,0,0,0,0,0],"split_type":[0,0,0,0,0,0,0,0,0,0,0,0,0,0,0,0,0,0,0,0,0],"sum_hessian":[4.876597E3,2.5575308E3,2.3190664E3,2.5112297E3,4.630087E1,2.1441519E3,1.7491455E2,2.0076908E3,5.03539E2,2.0273484E3,1.1680334E2,1.7372006E2,1.1944892E0,1.9975283E3,1.0162428E1,4.9904596E2,4.4930506E0,1.728393E3,2.9895554E2,9.126772E1,2.5535614E1],"tree_param":{"num_deleted":"0","num_feature":"108","num_nodes":"21","size_leaf_vector":"0"}},{"base_weights":[-6.7033094E-1,-1.193934E0,-1.2170825E-1,-1.2422262E0,1.3962693E0,-4.3375644E-1,6.078741E-1,-1.3309418E0,-8.950702E-1,3.3504802E-1,1.4749362E0,-5.3469294E-1,1.4487114E0,4.7781384E-1,1.4300911E0,-1.3756498E0,-1.1276369E0,-1.1069891E0,-4.7517583E-1,-9.821639E-1,1.1562271E0,-1.1540163E0,-4.179781E-1,5.796216E-1,1.4691447E0,-4.9404764E-1,5.7173467E-1],"categories":[],"categories_nodes":[],"categories_segments":[],"categories_sizes":[],"default_left":[true,true,true,true,true,true,true,true,true,true,false,true,true,true,false,false,false,false,false,false,false,false,false,false,false,false,false],"id":5,"left_children":[1,3,5,7,9,11,13,15,17,19,-1,21,23,25,-1,-1,-1,-1,-1,-1,-1,-1,-1,-1,-1,-1,-1],"loss_changes":[1.3666455E3,3.0624658E2,5.294957E2,7.242798E1,3.2648697E0,3.102613E2,7.383255E1,1.5734863E1,4.3038788E1,5.896472E0,0E0,1.1131491E2,6.252289E-1,5.5336563E1,0E0,0E0,0E0,0E0,0E0,0E0,0E0,0E0,0E0,0E0,0E0,0E0,0E0],"parents":[2147483647,0,0,1,1,2,2,3,3,4,4,5,5,6,6,7,7,8,8,9,9,11,11,12,12,13,13],"right_children":[2,4,6,8,10,12,14,16,18,20,-1,22,24,26,-1,-1,-1,-1,-1,-1,-1,-1,-1,-1,-1,-1,-1],"split_conditions":[5E-1,7.0735E3,1.25E1,1.25E1,8.296E3,5.0955E3,5.0955E3,4.05E1,4.35E1,1.15E1,1.4749363E-1,8.5E0,4.5E0,3.1E1,1.4300911E-1,-1.3756499E-1,-1.12763695E-1,-1.10698916E-1,-4.7517583E-2,-9.821639E-2,1.15622714E-1,-1.15401626E-1,-4.1797813E-2,5.796216E-2,1.4691447E-1,-4.9404766E-2,5.717347E-2],"split_indices":[33,3,2,2,3,3,3,5,5,2,0,2,2,5,0,0,0,0,0,0,0,0,0,0,0,0,0],"split_type":[0,0,0,0,0,0,0,0,0,0,0,0,0,0,0,0,0,0,0,0,0,0,0,0,0,0,0],"sum_hessian":[4.757018E3,2.4334082E3,2.32361E3,2.3893804E3,4.402766E1,1.6277947E3,6.9581537E2,1.9007982E3,4.885822E2,3.4014173E0,4.0626244E1,1.5456349E3,8.215978E1,6.021474E2,9.366797E1,1.5534242E3,3.4737405E2,3.2361743E2,1.6496477E2,1.2309198E0,2.1704974E0,2.4368463E2,1.3019503E3,2.561878E0,7.95979E1,5.2688107E1,5.494593E2],"tree_param":{"num_deleted":"0","num_feature":"108","num_nodes":"27","size_leaf_vector":"0"}},{"base_weights":[-6.2971777E-1,-7.2080684E-1,1.2669449E0,-9.137381E-1,-1.15670584E-1,4.944054E-1,1.3719896E0,-1.037711E0,-5.407098E-1,1.466934E-1,-7.4873286E-1,1.3537204E0,-6.45577E-1,1.8239276E-1,1.3813195E0,-9.459653E-1,-1.3764567E0,-5.955605E-1,8.379642E-1,3.1268558E-1,-1.2519195E0,-8.436738E-1,1.6290437E-1,-2.1893372E-1,-1.2180748E0],"categories":[],"categories_nodes":[],"categories_segments":[],"categories_sizes":[],"default_left":[true,true,true,true,true,true,true,true,true,true,true,false,true,false,false,false,false,false,false,false,false,false,false,false,false],"id":6,"left_children":[1,3,5,7,9,11,13,15,17,19,21,-1,23,-1,-1,-1,-1,-1,-1,-1,-1,-1,-1,-1,-1],"loss_changes":[7.986011E2,5.1432056E2,1.6521301E1,1.539397E2,1.772216E2,2.725735E1,1.8125916E0,7.659448E1,6.3676514E1,1.7560997E2,2.7194122E1,0E0,2.726151E0,0E0,0E0,0E0,0E0,0E0,0E0,0E0,0E0,0E0,0E0,0E0,0E0],"parents":[2147483647,0,0,1,1,2,2,3,3,4,4,5,5,6,6,7,7,8,8,9,9,10,10,12,12],"right_children":[2,4,6,8,10,12,14,16,18,20,22,-1,24,-1,-1,-1,-1,-1,-1,-1,-1,-1,-1,-1,-1],"split_conditions":[5.119E3,1.25E1,7.0735E3,4.05E1,5E-1,5.3165E3,4.5E0,5E-1,1.846E3,5E-1,1.45E1,1.3537204E-1,6.6405E3,1.8239276E-2,1.3813196E-1,-9.459653E-2,-1.3764568E-1,-5.955605E-2,8.379642E-2,3.126856E-2,-1.2519196E-1,-8.436739E-2,1.6290437E-2,-2.1893373E-2,-1.2180748E-1],"split_indices":[3,2,3,5,54,3,2,56,4,56,2,0,3,0,0,0,0,0,0,0,0,0,0,0,0],"split_type":[0,0,0,0,0,0,0,0,0,0,0,0,0,0,0,0,0,0,0,0,0,0,0,0,0],"sum_hessian":[4.6161777E3,4.405232E3,2.1094562E2,3.3398894E3,1.0653427E3,2.5932741E1,1.8501288E2,2.505443E3,8.344462E2,7.5373553E2,3.1160712E2,1.4679722E1,1.1253018E1,1.5996647E0,1.8341321E2,1.9744708E3,5.309724E2,8.030643E2,3.1381977E1,6.7446423E2,7.927131E1,2.8228366E2,2.932343E1,7.239978E0,4.013041E0],"tree_param":{"num_deleted":"0","num_feature":"108","num_nodes":"25","size_leaf_vector":"0"}},{"base_weights":[-5.8598256E-1,-1.0957835E0,-7.6647155E-2,-1.1474469E0,-3.2682693E-1,-5.369958E-1,2.6548347E-1,-1.3080487E0,-1.0233914E0,-9.858675E-1,-1.0891098E-1,-1.0502899E0,-3.8466975E-1,-6.1230236E-1,3.734303E-1,-1.3104126E0,-1.3364336E-1,-1.1064901E0,-6.3877994E-1,2.13804E-2,-1.0891256E0,3.9109343E-1,-4.7157064E-1,-1.0782064E0,8.602773E-2,-8.246518E-1,-1.6933934E-1,-1.2767634E0,-4.3546742E-1,2.2995347E-1,8.537668E-1],"categories":[],"categories_nodes":[],"categories_segments":[],"categories_sizes":[],"default_left":[true,true,true,true,true,true,true,true,true,true,true,true,true,true,true,false,false,false,false,false,false,false,false,false,false,false,false,false,false,false,false],"id":7,"left_children":[1,3,5,7,9,11,13,15,17,19,21,23,25,27,29,-1,-1,-1,-1,-1,-1,-1,-1,-1,-1,-1,-1,-1,-1,-1,-1],"loss_changes":[1.1669321E3,8.885571E1,3.5440674E2,4.0586426E1,2.0401642E1,7.460211E1,1.22556435E2,2.3608398E0,3.7384888E1,3.7011223E0,1.9848637E1,7.0385437E0,7.009669E1,1.6100262E1,7.907535E1,0E0,0E0,0E0,0E0,0E0,0E0,0E0,0E0,0E0,0E0,0E0,0E0,0E0,0E0,0E0,0E0],"parents":[2147483647,0,0,1,1,2,2,3,3,4,4,5,5,6,6,7,7,8,8,9,9,10,10,11,11,12,12,13,13,14,14],"right_children":[2,4,6,8,10,12,14,16,18,20,22,24,26,28,30,-1,-1,-1,-1,-1,-1,-1,-1,-1,-1,-1,-1,-1,-1,-1,-1],"split_conditions":[5E-1,1.35E1,9.5E0,2.85E1,3.25E1,7.5E0,2.95E1,2.218E3,1.25E1,5E-1,5E-1,1.811E3,3.55E1,2.45E1,5E-1,-1.3104127E-1,-1.3364336E-2,-1.1064901E-1,-6.387799E-2,2.13804E-3,-1.08912565E-1,3.9109346E-2,-4.7157064E-2,-1.07820645E-1,8.602773E-3,-8.246518E-2,-1.6933935E-2,-1.2767635E-1,-4.3546744E-2,2.2995347E-2,8.537668E-2],"split_indices":[33,2,2,0,0,2,0,4,2,35,64,4,0,0,42,0,0,0,0,0,0,0,0,0,0,0,0,0,0,0,0],"split_type":[0,0,0,0,0,0,0,0,0,0,0,0,0,0,0,0,0,0,0,0,0,0,0,0,0,0,0,0,0,0,0],"sum_hessian":[4.493407E3,2.2451018E3,2.2483052E3,2.1032966E3,1.4180507E2,9.5830414E2,1.2900011E3,9.1247125E2,1.1908254E3,3.4361607E1,1.0744346E2,2.1795723E2,7.403469E2,1.4075539E2,1.1492457E3,9.1052277E2,1.9485189E0,9.7770624E2,2.1311917E2,3.2687724E0,3.1092834E1,4.5135735E1,6.2307728E1,2.1278085E2,5.176365E0,2.4234224E2,4.9800467E2,2.8278444E1,1.12476944E2,8.860583E2,2.6318747E2],"tree_param":{"num_deleted":"0","num_feature":"108","num_nodes":"31","size_leaf_vector":"0"}},{"base_weights":[-5.335986E-1,-1.0355182E0,-6.0035944E-2,-1.0838883E0,1.3427248E0,-3.0157402E-1,5.000077E-1,-1.1324552E0,-3.4670815E-1,3.524215E-1,1.3910056E0,-3.764858E-1,1.353684E0,3.9410412E-1,1.2972075E0,-1.1434771E0,3.5285187E-1,-9.5783865E-1,-1.4639601E-1,4.009761E-1,1.4104017E0,-9.36764E-1,-2.5883305E-1,1.3801959E0,6.4298904E-1,2.9769894E-1,1.3003078E0,1.3085486E0,2.2601801E-1],"categories":[],"categories_nodes":[],"categories_segments":[],"categories_sizes":[],"default_left":[true,true,true,true,true,true,true,true,true,false,true,true,true,true,true,false,false,false,false,false,false,false,false,false,false,false,false,false,false],"id":8,"left_children":[1,3,5,7,9,11,13,15,17,-1,19,21,23,25,27,-1,-1,-1,-1,-1,-1,-1,-1,-1,-1,-1,-1,-1,-1],"loss_changes":[1.0328115E3,2.44125E2,3.0274734E2,7.3647705E1,1.541626E0,1.9438362E2,5.642836E1,3.2158447E1,1.5683969E1,0E0,2.0604706E-1,9.841133E1,3.9217377E-1,5.1749054E1,6.5974426E-1,0E0,0E0,0E0,0E0,0E0,0E0,0E0,0E0,0E0,0E0,0E0,0E0,0E0,0E0],"parents":[2147483647,0,0,1,1,2,2,3,3,4,4,5,5,6,6,7,7,8,8,10,10,11,11,12,12,13,13,14,14],"right_children":[2,4,6,8,10,12,14,16,18,-1,20,22,24,26,28,-1,-1,-1,-1,-1,-1,-1,-1,-1,-1,-1,-1,-1,-1],"split_conditions":[5E-1,7.0735E3,1.25E1,1.35E1,8.296E3,5.0955E3,5.0955E3,2.2185E3,3.25E1,3.524215E-2,2.25E1,3.05E1,6.65E1,1.7825E3,7.65E1,-1.1434771E-1,3.5285186E-2,-9.578387E-2,-1.4639601E-2,4.009761E-2,1.4104018E-1,-9.36764E-2,-2.5883306E-2,1.3801959E-1,6.4298905E-2,2.9769896E-2,1.3003078E-1,1.3085486E-1,2.2601802E-2],"split_indices":[33,3,2,2,3,3,3,4,0,0,0,0,0,4,0,0,0,0,0,0,0,0,0,0,0,0,0,0,0],"split_type":[0,0,0,0,0,0,0,0,0,0,0,0,0,0,0,0,0,0,0,0,0,0,0,0,0,0,0,0,0],"sum_hessian":[4.3444585E3,2.1085076E3,2.2359512E3,2.0670117E3,4.149595E1,1.5625215E3,6.734296E2,1.9387468E3,1.2826482E2,2.314844E0,3.9181103E1,1.4956075E3,6.691394E1,5.957782E2,7.765147E1,1.9246947E3,1.4052142E1,3.0729803E1,9.753502E1,1.1693112E0,3.801179E1,2.5834967E2,1.2372578E3,6.3599373E1,3.3145647E0,5.396923E2,5.6085873E1,7.661868E1,1.0327823E0],"tree_param":{"num_deleted":"0","num_feature":"108","num_nodes":"29","size_leaf_vector":"0"}},{"base_weights":[-5.1416147E-1,-1.008316E0,-6.495607E-2,-1.0529847E0,1.2706116E0,-4.7972292E-1,2.4244745E-1,-1.0789167E0,2.258272E-1,2.1501192E-1,1.3040518E0,-5.375332E-1,1.2694408E0,1.4402136E-1,1.2589245E0,-1.1545333E0,-7.9326975E-1,-6.360991E-1,5.8108544E-1,1.3533154E0,6.247104E-1,-5.866253E-1,7.676605E-1,1.3287756E0,-2.664749E-2,7.0622675E-2,1.2030537E0,1.2666476E0,2.159468E-1],"categories":[],"categories_nodes":[],"categories_segments":[],"categories_sizes":[],"default_left":[true,true,true,true,true,true,true,true,true,false,true,true,true,true,true,false,false,false,false,false,false,false,false,false,false,false,false,false,false],"id":9,"left_children":[1,3,5,7,9,11,13,15,17,-1,19,21,23,25,27,-1,-1,-1,-1,-1,-1,-1,-1,-1,-1,-1,-1,-1,-1],"loss_changes":[9.299512E2,2.0441882E2,2.800742E2,6.514722E1,1.0893822E0,9.52278E1,1.2605394E2,4.052173E1,1.25339E1,0E0,4.0673828E-1,5.848755E1,2.3586845E0,8.942203E1,6.226959E-1,0E0,0E0,0E0,0E0,0E0,0E0,0E0,0E0,0E0,0E0,0E0,0E0,0E0,0E0],"parents":[2147483647,0,0,1,1,2,2,3,3,4,4,5,5,6,6,7,7,8,8,10,10,11,11,12,12,13,13,14,14],"right_children":[2,4,6,8,10,12,14,16,18,-1,20,22,24,26,28,-1,-1,-1,-1,-1,-1,-1,-1,-1,-1,-1,-1,-1,-1],"split_conditions":[5E-1,7.0735E3,9.5E0,1.45E1,7.6695E3,5.0955E3,5.0955E3,4.35E1,3.25E1,2.1501193E-2,3.09615E4,1.7825E3,6.6E1,1.846E3,7.8E1,-1.15453325E-1,-7.932698E-2,-6.360991E-2,5.8108546E-2,1.3533154E-1,6.247104E-2,-5.866253E-2,7.676605E-2,1.3287757E-1,-2.664749E-3,7.0622675E-3,1.20305374E-1,1.2666476E-1,2.1594679E-2],"split_indices":[33,3,2,2,3,3,3,5,0,0,3,4,0,4,0,0,0,0,0,0,0,0,0,0,0,0,0,0,0],"split_type":[0,0,0,0,0,0,0,0,0,0,0,0,0,0,0,0,0,0,0,0,0,0,0,0,0,0,0,0,0],"sum_hessian":[4.1887E3,1.9939658E3,2.1947346E3,1.9561615E3,3.7804276E1,9.339857E2,1.2607488E3,1.9174358E3,3.8725727E1,1.3889573E0,3.6415318E1,9.047753E2,2.9210354E1,1.150488E3,1.1026077E2,1.5136892E3,4.0374652E2,1.1072103E1,2.7653625E1,3.3028126E1,3.387192E0,8.7250836E2,3.2266983E1,2.7907528E1,1.302826E0,1.0769165E3,7.35715E1,1.09237434E2,1.0233445E0],"tree_param":{"num_deleted":"0","num_feature":"108","num_nodes":"29","size_leaf_vector":"0"}},{"base_weights":[-4.7612816E-1,-9.546212E-1,-5.9669767E-2,-9.996918E-1,1.1919165E0,-1.437324E-1,1.2250246E0,-1.103144E0,-6.388136E-1,3.2578868E-1,1.2548128E0,-3.4460682E-1,2.925422E-1,3.149641E-1,1.2362745E0,-1.1111827E0,1.6897005E-1,-6.718988E-1,1.8842252E0,9.3358946E-1,-4.5284608E-1,1.3020024E0,6.07125E-1,-9.303609E-1,-2.3841298E-1,-5.810024E-1,3.8072205E-1],"categories":[],"categories_nodes":[],"categories_segments":[],"categories_sizes":[],"default_left":[true,true,true,true,true,true,true,true,true,true,true,true,true,false,false,false,false,false,false,false,false,false,false,false,false,false,false],"id":10,"left_children":[1,3,5,7,9,11,13,15,17,19,21,23,25,-1,-1,-1,-1,-1,-1,-1,-1,-1,-1,-1,-1,-1,-1],"loss_changes":[8.077098E2,1.8367651E2,2.3434615E2,6.8287476E1,1.7292099E0,1.7853476E2,9.750824E-1,1.486084E1,3.583345E1,2.3194547E0,3.1713104E-1,8.65282E1,4.9708862E1,0E0,0E0,0E0,0E0,0E0,0E0,0E0,0E0,0E0,0E0,0E0,0E0,0E0,0E0],"parents":[2147483647,0,0,1,1,2,2,3,3,4,4,5,5,6,6,7,7,8,8,9,9,10,10,11,11,12,12],"right_children":[2,4,6,8,10,12,14,16,18,20,22,24,26,-1,-1,-1,-1,-1,-1,-1,-1,-1,-1,-1,-1,-1,-1],"split_conditions":[5E-1,7.0735E3,5.0955E3,1.25E1,8.296E3,1.15E1,4.5E0,2.2185E3,2.3655E3,7.4365E3,3.09615E4,8.5E0,3.1E1,3.149641E-2,1.2362745E-1,-1.1111827E-1,1.6897006E-2,-6.718988E-2,1.8842253E-1,9.335895E-2,-4.528461E-2,1.3020025E-1,6.0712498E-2,-9.303609E-2,-2.3841297E-2,-5.8100242E-2,3.8072206E-2],"split_indices":[33,3,3,2,3,2,2,4,4,3,3,2,5,0,0,0,0,0,0,0,0,0,0,0,0,0,0],"split_type":[0,0,0,0,0,0,0,0,0,0,0,0,0,0,0,0,0,0,0,0,0,0,0,0,0,0,0],"sum_hessian":[4.0525798E3,1.8852339E3,2.167346E3,1.8469872E3,3.824668E1,2.0350713E3,1.3227463E2,1.433882E3,4.1310516E2,3.0077405E0,3.523894E1,1.3936168E3,6.4145447E2,1.9692361E0,1.303054E2,1.4250038E3,8.878247E0,4.0848236E2,4.6228166E0,1.5774096E0,1.430331E0,3.1904217E1,3.334724E0,2.1268845E2,1.1809283E3,5.8302097E1,5.831524E2],"tree_param":{"num_deleted":"0","num_feature":"108","num_nodes":"27","size_leaf_vector":"0"}},{"base_weights":[-4.4389695E-1,-9.110983E-1,-5.661313E-2,-1.0450014E0,-4.727597E-1,-4.0623853E-1,2.0061496E-1,-1.1610931E0,-9.067274E-1,-1.115561E0,-2.4649613E-1,-7.7188486E-1,-2.4272475E-1,-3.622809E-1,3.4089032E-1,-1.163649E0,3.1749856E-2,-9.2545897E-1,3.5244378E-1,-1.1290089E0,8.358985E-2,-5.005378E-1,3.713553E-2,-8.072293E-1,3.9810824E-1,-6.829286E-1,-9.967764E-2,-1.2498002E0,-2.534332E-1,3.8193664E-1,-1.0483264E0],"categories":[],"categories_nodes":[],"categories_segments":[],"categories_sizes":[],"default_left":[true,true,true,true,true,true,true,true,true,true,true,true,true,true,true,false,false,false,false,false,false,false,false,false,false,false,false,false,false,false,false],"id":11,"left_children":[1,3,5,7,9,11,13,15,17,19,21,23,25,27,29,-1,-1,-1,-1,-1,-1,-1,-1,-1,-1,-1,-1,-1,-1,-1,-1],"loss_changes":[7.103244E2,1.0394531E2,1.9323006E2,2.0813354E1,6.0547867E1,5.426013E1,9.787727E1,2.2835693E0,1.5097168E1,1.845581E0,2.2398489E1,1.1939194E1,3.9648785E1,2.3588505E1,5.694107E1,0E0,0E0,0E0,0E0,0E0,0E0,0E0,0E0,0E0,0E0,0E0,0E0,0E0,0E0,0E0,0E0],"parents":[2147483647,0,0,1,1,2,2,3,3,4,4,5,5,6,6,7,7,8,8,9,9,10,10,11,11,12,12,13,13,14,14],"right_children":[2,4,6,8,10,12,14,16,18,20,22,24,26,28,30,-1,-1,-1,-1,-1,-1,-1,-1,-1,-1,-1,-1,-1,-1,-1,-1],"split_conditions":[5E-1,1.25E1,9.5E0,3.25E1,2.75E1,3.55E1,3.25E1,5E-1,2.2185E3,1.925E3,5E-1,1.794E3,8.5E0,2.45E1,5E-1,-1.163649E-1,3.1749855E-3,-9.25459E-2,3.524438E-2,-1.1290089E-1,8.358985E-3,-5.0053783E-2,3.713553E-3,-8.072293E-2,3.9810825E-2,-6.829286E-2,-9.967764E-3,-1.24980025E-1,-2.534332E-2,3.8193665E-2,-1.0483264E-1],"split_indices":[33,2,2,0,0,0,0,32,4,4,65,4,2,0,43,0,0,0,0,0,0,0,0,0,0,0,0,0,0,0,0],"split_type":[0,0,0,0,0,0,0,0,0,0,0,0,0,0,0,0,0,0,0,0,0,0,0,0,0,0,0,0,0,0,0],"sum_hessian":[3.9250413E3,1.7783588E3,2.1466826E3,1.361167E3,4.171917E2,9.0967267E2,1.2370099E3,7.35914E2,6.2525305E2,1.07593796E2,3.095979E2,2.799449E2,6.2972784E2,2.464549E2,9.90555E2,7.34365E2,1.5490245E0,6.163492E2,8.903868E0,1.06458405E2,1.1353936E0,1.6291464E2,1.4668326E2,2.7203696E2,7.9079337E0,1.5352028E2,4.7620752E2,2.5778751E1,2.2067613E2,9.6283185E2,2.7723122E1],"tree_param":{"num_deleted":"0","num_feature":"108","num_nodes":"31","size_leaf_vector":"0"}},{"base_weights":[-4.109696E-1,-8.6457455E-1,-5.2594725E-2,-9.1939175E-1,9.5101506E-1,-1.2821692E-1,1.1851956E0,-1.0370612E0,-5.457331E-1,2.89391E0,7.522984E-1,-3.1170765E-1,2.595056E-1,1.2050862E0,4.731545E-1,-1.1265961E0,-8.692005E-1,-7.8918093E-1,-1.2362591E-1,-6.790187E-1,1.2333163E0,-1.0415642E0,-2.2941425E-1,1.8172671E-1,1.1342089E0,1.220217E0,2.5522563E-1,-6.0382467E-2,8.6710525E-1],"categories":[],"categories_nodes":[],"categories_segments":[],"categories_sizes":[],"default_left":[true,true,true,true,true,true,true,true,true,false,true,true,true,true,true,false,false,false,false,false,false,false,false,false,false,false,false,false,false],"id":12,"left_children":[1,3,5,7,9,11,13,15,17,-1,19,21,23,25,27,-1,-1,-1,-1,-1,-1,-1,-1,-1,-1,-1,-1,-1,-1],"loss_changes":[6.193147E2,1.6822925E2,1.9948259E2,7.122327E1,1.7039604E1,1.4292227E2,1.1677246E0,1.7666382E1,4.030224E1,0E0,3.2856342E1,8.164314E1,4.3710064E1,1.3949127E0,1.0993212E0,0E0,0E0,0E0,0E0,0E0,0E0,0E0,0E0,0E0,0E0,0E0,0E0,0E0,0E0],"parents":[2147483647,0,0,1,1,2,2,3,3,4,4,5,5,6,6,7,7,8,8,10,10,11,11,12,12,13,13,14,14],"right_children":[2,4,6,8,10,12,14,16,18,-1,20,22,24,26,28,-1,-1,-1,-1,-1,-1,-1,-1,-1,-1,-1,-1,-1,-1],"split_conditions":[5E-1,4.6685E3,5.0955E3,4.05E1,4.826E3,1.15E1,6.95E1,3.75E1,1.25E1,2.89391E-1,8.296E3,3.45E1,1.7825E3,5E-1,1.05855E4,-1.1265961E-1,-8.692005E-2,-7.891809E-2,-1.2362591E-2,-6.790187E-2,1.2333163E-1,-1.0415643E-1,-2.2941425E-2,1.8172672E-2,1.13420896E-1,1.220217E-1,2.5522564E-2,-6.0382467E-3,8.671053E-2],"split_indices":[33,3,3,5,3,2,0,0,2,0,3,5,4,43,3,0,0,0,0,0,0,0,0,0,0,0,0,0,0],"split_type":[0,0,0,0,0,0,0,0,0,0,0,0,0,0,0,0,0,0,0,0,0,0,0,0,0,0,0,0,0],"sum_hessian":[3.8090264E3,1.680526E3,2.1285005E3,1.6317528E3,4.877313E1,2.0067928E3,1.2170762E2,1.2396099E3,3.92143E2,3.2670908E0,4.550604E1,1.3622842E3,6.4450867E2,1.17726524E2,3.9810965E0,8.046879E2,4.3492194E2,2.4815273E2,1.4399026E2,1.1342791E1,3.4163246E1,1.3685614E2,1.2254281E3,5.9298773E2,5.1520885E1,1.1560043E2,2.1260872E0,2.0506194E0,1.9304771E0],"tree_param":{"num_deleted":"0","num_feature":"108","num_nodes":"29","size_leaf_vector":"0"}},{"base_weights":[-3.8793162E-1,-8.4351236E-1,-4.4395827E-2,-8.943214E-1,8.6015564E-1,-1.12999216E-1,1.1621757E0,-1.0093552E0,-5.373448E-1,2.4010665E0,7.018282E-1,-3.920164E-1,9.818742E-2,1.1835432E0,3.8877964E-1,-1.0178505E0,7.6988316E-1,-1.1032735E0,-3.4174484E-1,-5.4412645E-1,1.1419804E0,-7.8826755E-1,-2.5955883E-1,-2.818376E-1,2.580418E-1,1.1996912E0,1.8213901E-1,-1.18578896E-1,8.001673E-1],"categories":[],"categories_nodes":[],"categories_segments":[],"categories_sizes":[],"default_left":[true,true,true,true,true,true,true,true,true,false,true,true,true,true,true,false,false,false,false,false,false,false,false,false,false,false,false,false,false],"id":13,"left_children":[1,3,5,7,9,11,13,15,17,-1,19,21,23,25,27,-1,-1,-1,-1,-1,-1,-1,-1,-1,-1,-1,-1,-1,-1],"loss_changes":[5.809144E2,1.3889514E2,1.7538747E2,6.3106323E1,9.713181E0,1.1813929E2,1.423706E0,1.8484985E1,4.1674347E1,0E0,2.4630903E1,4.512619E1,6.942342E1,1.5673981E0,1.045399E0,0E0,0E0,0E0,0E0,0E0,0E0,0E0,0E0,0E0,0E0,0E0,0E0,0E0,0E0],"parents":[2147483647,0,0,1,1,2,2,3,3,4,4,5,5,6,6,7,7,8,8,10,10,11,11,12,12,13,13,14,14],"right_children":[2,4,6,8,10,12,14,16,18,-1,20,22,24,26,28,-1,-1,-1,-1,-1,-1,-1,-1,-1,-1,-1,-1,-1,-1],"split_conditions":[5E-1,4.6685E3,5.0955E3,1.25E1,4.826E3,9.5E0,6.95E1,2.3915E3,2.75E1,2.4010666E-1,7.6695E3,3.35E1,3.55E1,5E-1,1.05855E4,-1.0178506E-1,7.698832E-2,-1.10327356E-1,-3.4174483E-2,-5.4412644E-2,1.14198044E-1,-7.8826755E-2,-2.5955884E-2,-2.8183762E-2,2.580418E-2,1.1996912E-1,1.8213902E-2,-1.185789E-2,8.001673E-2],"split_indices":[33,3,3,2,3,2,0,4,0,0,3,0,0,43,3,0,0,0,0,0,0,0,0,0,0,0,0,0,0],"split_type":[0,0,0,0,0,0,0,0,0,0,0,0,0,0,0,0,0,0,0,0,0,0,0,0,0,0,0,0,0],"sum_hessian":[3.7109558E3,1.5946938E3,2.116262E3,1.5489734E3,4.5720436E1,2.0032665E3,1.1299562E2,1.1700905E3,3.788829E2,2.9401774E0,4.278026E1,8.626662E2,1.1406002E3,1.0944162E2,3.5540018E0,1.164956E3,5.134415E0,9.6124825E1,2.827581E2,1.1105969E1,3.167429E1,2.1488367E2,6.4778253E2,3.3749753E2,8.031027E2,1.0750999E2,1.9316332E0,1.9100828E0,1.643919E0],"tree_param":{"num_deleted":"0","num_feature":"108","num_nodes":"29","size_leaf_vector":"0"}},{"base_weights":[-3.56838E-1,-7.978223E-1,-4.178112E-2,-8.5020393E-1,8.4198135E-1,-1.03426404E-1,1.1236671E0,-9.708178E-1,-4.7276357E-1,2.1718116E0,6.802505E-1,-1.5937757E-1,9.0671635E-1,1.1462417E0,3.7955987E-1,-1.0986357E0,-8.100719E-1,-7.637862E-1,-1.1304002E-1,-8.8370883E-1,1.0595788E0,-8.423358E-1,-8.161871E-2,1.4402361E0,-6.185735E-1,1.0365992E-1,1.1621265E0,-2.554799E-1,8.3313227E-1],"categories":[],"categories_nodes":[],"categories_segments":[],"categories_sizes":[],"default_left":[true,true,true,true,true,true,true,true,true,false,true,true,true,true,true,false,false,false,false,false,false,false,false,false,false,false,false,false,false],"id":14,"left_children":[1,3,5,7,9,11,13,15,17,-1,19,21,23,25,27,-1,-1,-1,-1,-1,-1,-1,-1,-1,-1,-1,-1,-1,-1],"loss_changes":[4.9789313E2,1.2899353E2,1.50376E2,6.544617E1,8.573296E0,1.12464584E2,1.3312836E0,2.1631592E1,3.681974E1,0E0,2.6517519E1,9.997567E1,8.5887955E1,1.5615234E0,1.5352916E0,0E0,0E0,0E0,0E0,0E0,0E0,0E0,0E0,0E0,0E0,0E0,0E0,0E0,0E0],"parents":[2147483647,0,0,1,1,2,2,3,3,4,4,5,5,6,6,7,7,8,8,10,10,11,11,12,12,13,13,14,14],"right_children":[2,4,6,8,10,12,14,16,18,-1,20,22,24,26,28,-1,-1,-1,-1,-1,-1,-1,-1,-1,-1,-1,-1,-1,-1],"split_conditions":[5E-1,4.6685E3,5.0955E3,4.25E1,4.826E3,1.7825E3,6.95E1,3.35E1,3.65E1,2.1718116E-1,7.1395E3,3.45E1,1.9895E3,4.5E0,1.05855E4,-1.0986357E-1,-8.100719E-2,-7.637862E-2,-1.1304002E-2,-8.837088E-2,1.0595788E-1,-8.423358E-2,-8.161872E-3,1.4402361E-1,-6.185735E-2,1.0365992E-2,1.1621266E-1,-2.554799E-2,8.331323E-2],"split_indices":[33,3,3,5,3,4,0,0,0,0,3,5,4,2,3,0,0,0,0,0,0,0,0,0,0,0,0,0,0],"split_type":[0,0,0,0,0,0,0,0,0,0,0,0,0,0,0,0,0,0,0,0,0,0,0,0,0,0,0,0,0],"sum_hessian":[3.5828767E3,1.4924148E3,2.090462E3,1.4466837E3,4.5731102E1,1.9863092E3,1.04152695E2,1.0951487E3,3.515351E2,3.611016E0,4.2120087E1,1.882861E3,1.0344825E2,1.0056146E2,3.591234E0,6.06808E2,4.8834067E2,1.9370285E2,1.5783224E2,7.962258E0,3.415783E1,1.9145691E2,1.691404E3,7.668199E1,2.6766256E1,1.6221079E0,9.8939354E1,1.6782627E0,1.9129713E0],"tree_param":{"num_deleted":"0","num_feature":"108","num_nodes":"29","size_leaf_vector":"0"}},{"base_weights":[-3.31345E-1,-7.7255446E-1,-2.9596975E-2,-8.192894E-1,7.861175E-1,-1.433227E-1,5.469865E-1,-9.5364594E-1,-4.239834E-1,1.5807071E-1,1.112772E0,-2.7031332E-1,4.9115887E-1,6.6729665E-1,-2.8206968E-1,-1.0214325E0,-6.866954E-1,-9.3579835E-1,-1.9022743E-1,1.9147632E0,-5.232626E-1,1.1772166E0,3.240413E-1,-3.1922838E-1,1.0600157E0,-1.2106509E-1,6.0353136E-1,-3.0505198E-1,7.536266E-1,-4.274033E-1,1.2215748E0],"categories":[],"categories_nodes":[],"categories_segments":[],"categories_sizes":[],"default_left":[true,true,true,true,true,true,true,true,true,true,true,true,true,true,true,false,false,false,false,false,false,false,false,false,false,false,false,false,false,false,false],"id":15,"left_children":[1,3,5,7,9,11,13,15,17,19,21,23,25,27,29,-1,-1,-1,-1,-1,-1,-1,-1,-1,-1,-1,-1,-1,-1,-1,-1],"loss_changes":[4.6231296E2,1.03382324E2,1.3537566E2,7.234912E1,8.351921E0,1.3905663E2,3.4114357E1,1.7784058E1,4.1608974E1,1.9419899E1,1.000061E0,9.386772E1,1.987967E1,2.5188263E1,1.0095207E1,0E0,0E0,0E0,0E0,0E0,0E0,0E0,0E0,0E0,0E0,0E0,0E0,0E0,0E0,0E0,0E0],"parents":[2147483647,0,0,1,1,2,2,3,3,4,4,5,5,6,6,7,7,8,8,9,9,10,10,11,11,12,12,13,13,14,14],"right_children":[2,4,6,8,10,12,14,16,18,20,22,24,26,28,30,-1,-1,-1,-1,-1,-1,-1,-1,-1,-1,-1,-1,-1,-1,-1,-1],"split_conditions":[5E-1,4.6685E3,5E-1,1.25E1,8.296E3,5E-1,5E-1,4.05E1,2.95E1,4.826E3,3.09615E4,5.0955E3,3.25E1,2.95E1,1.7485E3,-1.0214325E-1,-6.866954E-2,-9.3579836E-2,-1.9022744E-2,1.9147633E-1,-5.2326262E-2,1.1772167E-1,3.2404132E-2,-3.192284E-2,1.0600157E-1,-1.2106509E-2,6.0353138E-2,-3.0505199E-2,7.536266E-2,-4.274033E-2,1.2215748E-1],"split_indices":[33,3,42,2,3,48,12,5,0,3,3,3,0,0,4,0,0,0,0,0,0,0,0,0,0,0,0,0,0,0,0],"split_type":[0,0,0,0,0,0,0,0,0,0,0,0,0,0,0,0,0,0,0,0,0,0,0,0,0,0,0,0,0,0,0],"sum_hessian":[3.471708E3,1.409381E3,2.062327E3,1.3688131E3,4.0567825E1,1.7231943E3,3.3913263E2,1.02053973E3,3.482734E2,1.4388152E1,2.6179674E1,1.4362958E3,2.8689865E2,2.9632584E2,4.280679E1,8.116193E2,2.089204E2,1.082512E2,2.4002219E2,3.5150151E0,1.08731365E1,2.3746851E1,2.4328249E0,1.3860905E3,5.0205338E1,4.448107E1,2.4241757E2,2.395729E1,2.7236853E2,3.968666E1,3.1201289E0],"tree_param":{"num_deleted":"0","num_feature":"108","num_nodes":"31","size_leaf_vector":"0"}},{"base_weights":[-3.0174395E-1,-7.371672E-1,-1.8419279E-2,-7.843048E-1,7.9064524E-1,-7.028386E-2,1.0895225E0,-9.21001E-1,-3.9635703E-1,1.8011782E0,6.278115E-1,-1.688954E-1,4.444066E-1,1.1063327E0,2.995899E-1,-1.0567709E0,-7.554354E-1,-1.0086882E0,-2.1172331E-1,-5.559225E-1,1.0038983E0,-2.1367784E-1,7.751046E-1,-4.1873422E-1,5.253319E-1,1.1344117E0,6.033287E-1,7.1828735E-1,-2.695491E-1],"categories":[],"categories_nodes":[],"categories_segments":[],"categories_sizes":[],"default_left":[true,true,true,true,true,true,true,true,true,false,true,true,true,true,true,false,false,false,false,false,false,false,false,false,false,false,false,false,false],"id":16,"left_children":[1,3,5,7,9,11,13,15,17,-1,19,21,23,25,27,-1,-1,-1,-1,-1,-1,-1,-1,-1,-1,-1,-1,-1,-1],"loss_changes":[4.1763226E2,9.672577E1,1.17986946E2,6.8312195E1,5.5232906E0,9.961047E1,8.87825E-1,2.0710815E1,3.813296E1,0E0,1.674579E1,6.97716E1,2.2264584E1,5.8016205E-1,9.763292E-1,0E0,0E0,0E0,0E0,0E0,0E0,0E0,0E0,0E0,0E0,0E0,0E0,0E0,0E0],"parents":[2147483647,0,0,1,1,2,2,3,3,4,4,5,5,6,6,7,7,8,8,10,10,11,11,12,12,13,13,14,14],"right_children":[2,4,6,8,10,12,14,16,18,-1,20,22,24,26,28,-1,-1,-1,-1,-1,-1,-1,-1,-1,-1,-1,-1,-1,-1],"split_conditions":[5E-1,4.6685E3,5.0955E3,4.05E1,4.826E3,5E-1,5E-1,3.35E1,2.75E1,1.8011783E-1,7.0735E3,1.846E3,2.95E1,6.65E1,9.1465E3,-1.0567709E-1,-7.5543545E-2,-1.0086882E-1,-2.1172332E-2,-5.559225E-2,1.0038983E-1,-2.1367785E-2,7.751046E-2,-4.187342E-2,5.253319E-2,1.1344117E-1,6.0332872E-2,7.182874E-2,-2.695491E-2],"split_indices":[33,3,3,5,3,42,43,0,0,0,3,4,0,0,3,0,0,0,0,0,0,0,0,0,0,0,0,0,0],"split_type":[0,0,0,0,0,0,0,0,0,0,0,0,0,0,0,0,0,0,0,0,0,0,0,0,0,0,0,0,0],"sum_hessian":[3.3844165E3,1.3334785E3,2.050938E3,1.2940402E3,3.9438385E1,1.9601183E3,9.08198E1,9.5586145E2,3.381787E2,4.0767784E0,3.5361607E1,1.6455188E3,3.1459946E2,8.853519E1,2.2846212E0,5.222304E2,4.3363104E2,7.731223E1,2.608665E2,8.4107065E0,2.69509E1,1.5717311E3,7.3787766E1,2.6609634E1,2.8798984E2,8.266531E1,5.8698707E0,1.1652929E0,1.1193284E0],"tree_param":{"num_deleted":"0","num_feature":"108","num_nodes":"29","size_leaf_vector":"0"}},{"base_weights":[-2.8264531E-1,-6.923464E-1,-2.7530637E-2,-8.5750866E-1,-2.5358254E-1,-2.0483664E-1,2.5709036E-1,-1.0210897E0,-6.814377E-1,-8.8824177E-1,-4.5920487E-2,-2.9704225E-1,4.500762E-1,3.6430064E-1,-3.2376957E-1,-1.0357772E0,-4.9554163E-1,-8.029049E-1,-3.190688E-1,-9.2646027E-1,2.6537368E-1,-3.0308497E-1,2.7828112E-1,-6.118158E-1,-1.5950468E-1,-9.7926444E-1,5.097785E-1,-3.8024184E-1,4.562676E-1,-4.3627927E-1,1.2335851E0],"categories":[],"categories_nodes":[],"categories_segments":[],"categories_sizes":[],"default_left":[true,true,true,true,true,true,true,true,true,true,true,true,true,true,true,false,false,false,false,false,false,false,false,false,false,false,false,false,false,false,false],"id":17,"left_children":[1,3,5,7,9,11,13,15,17,19,21,23,25,27,29,-1,-1,-1,-1,-1,-1,-1,-1,-1,-1,-1,-1,-1,-1,-1,-1],"loss_changes":[3.4206726E2,9.07937E1,1.0189151E2,2.5571777E1,4.5412926E1,7.525305E1,4.8382656E1,3.120575E0,1.920958E1,3.9921951E0,2.1837357E1,4.7137474E1,1.3634171E1,4.5006104E1,2.179034E1,0E0,0E0,0E0,0E0,0E0,0E0,0E0,0E0,0E0,0E0,0E0,0E0,0E0,0E0,0E0,0E0],"parents":[2147483647,0,0,1,1,2,2,3,3,4,4,5,5,6,6,7,7,8,8,9,9,10,10,11,11,12,12,13,13,14,14],"right_children":[2,4,6,8,10,12,14,16,18,20,22,24,26,28,30,-1,-1,-1,-1,-1,-1,-1,-1,-1,-1,-1,-1,-1,-1,-1,-1],"split_conditions":[5E-1,1.25E1,4.15E1,3.25E1,2.85E1,5E-1,5E-1,5E-1,4.15E1,1.534E3,4.45E1,3.55E1,2.65E1,2.95E1,5E-1,-1.03577726E-1,-4.9554165E-2,-8.029049E-2,-3.190688E-2,-9.2646025E-2,2.6537368E-2,-3.0308498E-2,2.7828112E-2,-6.1181583E-2,-1.595047E-2,-9.7926445E-2,5.0977852E-2,-3.8024183E-2,4.562676E-2,-4.362793E-2,1.2335851E-1],"split_indices":[33,2,5,0,0,48,12,12,5,4,5,0,0,0,29,0,0,0,0,0,0,0,0,0,0,0,0,0,0,0,0],"split_type":[0,0,0,0,0,0,0,0,0,0,0,0,0,0,0,0,0,0,0,0,0,0,0,0,0,0,0,0,0,0,0],"sum_hessian":[3.271903E3,1.2548939E3,2.017009E3,9.1101105E2,3.4388287E2,1.2429733E3,7.740358E2,4.6976788E2,4.4124316E2,8.397134E1,2.5991153E2,1.0900508E3,1.5292252E2,6.537457E2,1.20290115E2,4.5605176E2,1.37161455E1,3.295584E2,1.1168475E2,8.146922E1,2.5021143E0,1.4497725E2,1.1493429E2,3.3041116E2,7.596396E2,5.513785E0,1.4740874E2,7.152905E1,5.822166E2,1.1285674E2,7.4333763E0],"tree_param":{"num_deleted":"0","num_feature":"108","num_nodes":"31","size_leaf_vector":"0"}},{"base_weights":[-2.5694865E-1,-6.7166585E-1,-1.152747E-2,-7.2058105E-1,7.15765E-1,-5.826507E-2,1.0763719E0,-1.0425564E0,-5.536196E-1,8.807496E-2,1.0763007E0,-6.867309E-1,1.2648737E-2,1.105433E0,3.2405484E-1,-1.0491419E0,6.04716E-1,-6.396385E-1,3.3974204E-2,1.6633221E0,-5.359134E-1,1.139825E0,4.2682964E-1,-1.0777338E0,-5.188158E-1,-3.5874024E-2,8.692619E-1,4.5037642E-1,1.1153784E0,-3.1707585E-1,7.905329E-1],"categories":[],"categories_nodes":[],"categories_segments":[],"categories_sizes":[],"default_left":[true,true,true,true,true,true,true,true,true,true,true,true,true,true,true,false,false,false,false,false,false,false,false,false,false,false,false,false,false,false,false],"id":18,"left_children":[1,3,5,7,9,11,13,15,17,19,21,23,25,27,29,-1,-1,-1,-1,-1,-1,-1,-1,-1,-1,-1,-1,-1,-1,-1,-1],"loss_changes":[3.264527E2,8.1442566E1,1.0257077E2,6.13692E1,9.208738E0,8.619934E1,1.4585114E0,4.890808E0,3.8484146E1,1.6704456E1,5.871239E-1,1.2316681E1,7.230682E1,1.6181946E-2,1.5980529E0,0E0,0E0,0E0,0E0,0E0,0E0,0E0,0E0,0E0,0E0,0E0,0E0,0E0,0E0,0E0,0E0],"parents":[2147483647,0,0,1,1,2,2,3,3,4,4,5,5,6,6,7,7,8,8,9,9,10,10,11,11,12,12,13,13,14,14],"right_children":[2,4,6,8,10,12,14,16,18,20,22,24,26,28,30,-1,-1,-1,-1,-1,-1,-1,-1,-1,-1,-1,-1,-1,-1,-1,-1],"split_conditions":[5E-1,4.6685E3,5.0955E3,2.75E1,8.296E3,2.85E1,6.95E1,2.218E3,5E-1,4.826E3,3.09615E4,2.45E1,1.7825E3,2.75E1,1.05855E4,-1.0491419E-1,6.04716E-2,-6.396385E-2,3.3974205E-3,1.6633222E-1,-5.359134E-2,1.139825E-1,4.2682964E-2,-1.0777338E-1,-5.188158E-2,-3.5874024E-3,8.692619E-2,4.5037642E-2,1.1153784E-1,-3.1707585E-2,7.905329E-2],"split_indices":[33,3,3,0,3,0,0,4,42,3,3,0,4,0,3,0,0,0,0,0,0,0,0,0,0,0,0,0,0,0,0],"split_type":[0,0,0,0,0,0,0,0,0,0,0,0,0,0,0,0,0,0,0,0,0,0,0,0,0,0,0,0,0,0,0],"sum_hessian":[3.2064988E3,1.1914418E3,2.015057E3,1.151331E3,4.011065E1,1.9329609E3,8.209612E1,3.9136404E2,7.5996704E2,1.508758E1,2.5023071E1,1.9511263E2,1.7378483E3,7.859089E1,3.505229E0,3.9016733E2,1.196705E0,6.628437E2,9.7123344E1,3.8082051E0,1.1279374E1,2.2105907E1,2.9171638E0,5.698965E1,1.3812299E2,1.645592E3,9.225626E1,1.8675728E0,7.672332E1,1.6111417E0,1.8940873E0],"tree_param":{"num_deleted":"0","num_feature":"108","num_nodes":"31","size_leaf_vector":"0"}},{"base_weights":[-2.4286862E-1,-9.1040564E-1,-1.1351178E-1,-1.017048E0,-6.372338E-1,-2.1694158E-1,4.292939E-1,-1.0289029E0,3.9881968E-1,-1.0829825E0,-4.942035E-1,-3.2719025E-1,2.7447066E-1,1.92396E-1,6.3826877E-1,-1.0382148E0,6.165677E-1,-2.5791004E-1,7.6670754E-1,-1.16229E0,1.08924806E-1,-1.2133515E0,-4.247523E-1,-6.839998E-1,-1.8206327E-1,-3.2793153E-2,4.316971E-1,-1.9034351E-1,3.768187E-1,7.624614E-1,-2.1866396E-1],"categories":[],"categories_nodes":[],"categories_segments":[],"categories_sizes":[],"default_left":[true,true,true,true,true,true,true,true,true,true,true,true,true,true,true,false,false,false,false,false,false,false,false,false,false,false,false,false,false,false,false],"id":19,"left_children":[1,3,5,7,9,11,13,15,17,19,21,23,25,27,29,-1,-1,-1,-1,-1,-1,-1,-1,-1,-1,-1,-1,-1,-1,-1,-1],"loss_changes":[2.6963058E2,1.4119293E1,1.47062E2,6.50177E0,8.7098465E0,1.1925224E2,2.0635574E1,6.1589355E0,1.099894E0,3.377098E0,5.0596085E0,9.2923904E1,1.9510998E1,1.404476E1,2.3830757E1,0E0,0E0,0E0,0E0,0E0,0E0,0E0,0E0,0E0,0E0,0E0,0E0,0E0,0E0,0E0,0E0],"parents":[2147483647,0,0,1,1,2,2,3,3,4,4,5,5,6,6,7,7,8,8,9,9,10,10,11,11,12,12,13,13,14,14],"right_children":[2,4,6,8,10,12,14,16,18,20,22,24,26,28,30,-1,-1,-1,-1,-1,-1,-1,-1,-1,-1,-1,-1,-1,-1,-1,-1],"split_conditions":[2.75E1,5E-1,5E-1,7.7315E3,2.35E1,5E-1,4.05E1,2.218E3,5E-1,5E-1,3.45E1,5E-1,5E-1,3.95E1,5E-1,-1.0382148E-1,6.165677E-2,-2.5791004E-2,7.667076E-2,-1.16229E-1,1.0892481E-2,-1.2133515E-1,-4.247523E-2,-6.839998E-2,-1.8206326E-2,-3.2793153E-3,4.316971E-2,-1.9034352E-2,3.768187E-2,7.624614E-2,-2.1866396E-2],"split_indices":[0,33,42,3,0,48,5,4,54,52,5,33,33,0,12,0,0,0,0,0,0,0,0,0,0,0,0,0,0,0,0],"split_type":[0,0,0,0,0,0,0,0,0,0,0,0,0,0,0,0,0,0,0,0,0,0,0,0,0,0,0,0,0,0,0],"sum_hessian":[3.1227107E3,5.0591803E2,2.6167927E3,3.6191025E2,1.4400778E2,2.19848E3,4.1831265E2,3.591762E2,2.7340305E0,3.3386932E1,1.1062086E2,1.7959023E3,4.0257773E2,1.96958E2,2.2135468E2,3.57522E2,1.6542176E0,1.0889863E0,1.6450442E0,3.1327314E1,2.0596163E0,8.291732E0,1.02329124E2,5.1818304E2,1.2777192E3,1.3653741E2,2.660403E2,6.403389E1,1.3292409E2,1.9343149E2,2.7923187E1],"tree_param":{"num_deleted":"0","num_feature":"108","num_nodes":"31","size_leaf_vector":"0"}},{"base_weights":[-2.2740765E-1,-8.4195703E-1,-9.337232E-2,-1.0302455E0,-6.2351984E-1,-1.3508242E-1,1.0736037E0,-1.0459889E0,5.144357E-1,-8.6118317E-1,-3.9602548E-1,-2.997499E-1,1.4032878E-1,1.0830066E0,1.6817589E-1,-1.0634078E0,-4.955181E-1,6.3635564E-1,1.3016456E-1,-8.8867503E-1,7.4347466E-1,-4.9928507E-1,1.17283925E-1,-6.5674293E-1,-1.4963132E-1,3.9529935E-2,4.9577504E-1],"categories":[],"categories_nodes":[],"categories_segments":[],"categories_sizes":[],"default_left":[true,true,true,true,true,true,true,true,true,true,true,true,true,false,false,false,false,false,false,false,false,false,false,false,false,false,false],"id":20,"left_children":[1,3,5,7,9,11,13,15,17,19,21,23,25,-1,-1,-1,-1,-1,-1,-1,-1,-1,-1,-1,-1,-1,-1],"loss_changes":[2.5234343E2,2.19198E1,1.2265297E2,7.6654053E0,1.3526382E1,1.1028676E2,5.582657E-1,2.2581177E0,8.710849E-2,6.1569214E0,7.1026917E0,8.144812E1,3.2594124E1,0E0,0E0,0E0,0E0,0E0,0E0,0E0,0E0,0E0,0E0,0E0,0E0,0E0,0E0],"parents":[2147483647,0,0,1,1,2,2,3,3,4,4,5,5,6,6,7,7,8,8,9,9,10,10,11,11,12,12],"right_children":[2,4,6,8,10,12,14,16,18,20,22,24,26,-1,-1,-1,-1,-1,-1,-1,-1,-1,-1,-1,-1,-1,-1],"split_conditions":[2.85E1,2.45E1,7.0735E3,4.2435E3,5E-1,4.05E1,7.75E1,5E-1,5E-1,7.7315E3,5E-1,5E-1,5E-1,1.0830066E-1,1.681759E-2,-1.0634078E-1,-4.955181E-2,6.3635565E-2,1.3016457E-2,-8.886751E-2,7.4347466E-2,-4.992851E-2,1.1728393E-2,-6.56743E-2,-1.4963132E-2,3.9529935E-3,4.9577504E-2],"split_indices":[0,0,3,3,33,5,0,52,30,3,58,33,42,0,0,0,0,0,0,0,0,0,0,0,0,0,0],"split_type":[0,0,0,0,0,0,0,0,0,0,0,0,0,0,0,0,0,0,0,0,0,0,0,0,0,0,0],"sum_hessian":[3.0634404E3,5.475684E2,2.5158718E3,2.9208255E2,2.5548586E2,2.4299065E3,8.596555E1,2.8945526E2,2.6272843E0,1.23588E2,1.3189786E2,1.5206351E3,9.092713E2,8.4887856E1,1.0776954E0,2.7967358E2,9.781664E0,1.4964805E0,1.1308037E0,1.2194496E2,1.6430397E0,1.0983108E2,2.2066786E1,4.4914957E2,1.0714856E3,7.092505E2,2.0002081E2],"tree_param":{"num_deleted":"0","num_feature":"108","num_nodes":"27","size_leaf_vector":"0"}},{"base_weights":[-2.041989E-1,-6.008304E-1,4.048656E-4,-8.114886E-1,-2.3074393E-1,-6.422841E-1,6.784218E-2,-9.722382E-1,-6.351155E-1,-6.0121495E-1,4.2238012E-2,-9.48442E-1,-5.308371E-1,-5.6315386E-1,1.3340068E-1,-9.8514163E-1,-1.8148197E-1,-8.189568E-1,-3.7535048E-1,-7.994222E-1,-2.4671815E-2,-2.877256E-1,4.2665052E-1,-1.0248301E0,-5.491266E-1,-1.1053689E0,-4.5904613E-1,-8.5572493E-1,1.6507852E-1,-1.3700804E-1,2.707436E-1],"categories":[],"categories_nodes":[],"categories_segments":[],"categories_sizes":[],"default_left":[true,true,true,true,true,true,true,true,true,true,true,true,true,true,true,false,false,false,false,false,false,false,false,false,false,false,false,false,false,false,false],"id":21,"left_children":[1,3,5,7,9,11,13,15,17,19,21,23,25,27,29,-1,-1,-1,-1,-1,-1,-1,-1,-1,-1,-1,-1,-1,-1,-1,-1],"loss_changes":[2.4237476E2,7.905145E1,8.548141E1,1.7734772E1,3.7451965E1,5.887245E0,7.391486E1,3.2573853E0,1.4570152E1,1.7929337E1,2.7267963E1,9.231529E-1,5.2499466E0,3.597603E1,6.011989E1,0E0,0E0,0E0,0E0,0E0,0E0,0E0,0E0,0E0,0E0,0E0,0E0,0E0,0E0,0E0,0E0],"parents":[2147483647,0,0,1,1,2,2,3,3,4,4,5,5,6,6,7,7,8,8,9,9,10,10,11,11,12,12,13,13,14,14],"right_children":[2,4,6,8,10,12,14,16,18,20,22,24,26,28,30,-1,-1,-1,-1,-1,-1,-1,-1,-1,-1,-1,-1,-1,-1,-1,-1],"split_conditions":[5E-1,1.05E1,8.5E0,3.35E1,3.45E1,3.55E1,3.45E1,5E-1,5E-1,4.75E1,5E-1,4.9E1,2.9E1,5E-1,3.65E1,-9.851416E-2,-1.8148197E-2,-8.189568E-2,-3.753505E-2,-7.994222E-2,-2.4671815E-3,-2.877256E-2,4.2665053E-2,-1.0248301E-1,-5.4912664E-2,-1.1053689E-1,-4.5904614E-2,-8.5572496E-2,1.6507853E-2,-1.3700805E-2,2.7074361E-2],"split_indices":[33,2,2,0,0,0,5,49,65,5,65,5,5,58,0,0,0,0,0,0,0,0,0,0,0,0,0,0,0,0,0],"split_type":[0,0,0,0,0,0,0,0,0,0,0,0,0,0,0,0,0,0,0,0,0,0,0,0,0,0,0,0,0,0,0],"sum_hessian":[2.9856626E3,1.0153789E3,1.9702837E3,6.463021E2,3.6907678E2,1.8629895E2,1.7839847E3,3.3576642E2,3.1053568E2,1.56069E2,2.1300778E2,4.771368E1,1.3858528E2,1.6719116E2,1.6167936E3,3.301335E2,5.632899E0,1.8058156E2,1.2995413E2,1.15853615E2,4.021538E1,1.14756836E2,9.8250946E1,3.8736923E1,8.976754E0,1.3794345E1,1.2479093E2,1.1914784E2,4.8043316E1,5.445852E2,1.0722084E3],"tree_param":{"num_deleted":"0","num_feature":"108","num_nodes":"31","size_leaf_vector":"0"}},{"base_weights":[-1.9114044E-1,-8.4174407E-1,-8.288759E-2,-9.9684817E-1,-6.0043085E-1,-1.1978612E-1,1.0167094E0,-1.0104836E0,2.4657552E-1,-8.151381E-1,-3.938102E-1,-1.6210188E-1,8.056708E-1,1.0740978E0,5.254755E-1,-1.0166768E0,1.5832329E-1,-7.24627E-2,5.163284E-1,-8.460586E-1,6.5734345E-1,-7.8391594E-1,-2.2751051E-1,-4.7182953E-1,-4.195671E-2,1.2068555E0,1.0155109E-1,2.9747224E-1,1.0813662E0,7.448215E-1,-4.1758743E-1],"categories":[],"categories_nodes":[],"categories_segments":[],"categories_sizes":[],"default_left":[true,true,true,true,true,true,true,true,true,true,true,true,true,true,true,false,false,false,false,false,false,false,false,false,false,false,false,false,false,false,false],"id":22,"left_children":[1,3,5,7,9,11,13,15,17,19,21,23,25,27,29,-1,-1,-1,-1,-1,-1,-1,-1,-1,-1,-1,-1,-1,-1,-1,-1],"loss_changes":[2.0711261E2,1.5103912E1,1.0249528E2,4.5534363E0,7.072613E0,9.576807E1,1.7479553E0,1.9801025E0,3.4358674E-1,4.234833E0,5.4569817E0,8.691501E1,3.0088783E1,8.74939E-2,2.4908788E0,0E0,0E0,0E0,0E0,0E0,0E0,0E0,0E0,0E0,0E0,0E0,0E0,0E0,0E0,0E0,0E0],"parents":[2147483647,0,0,1,1,2,2,3,3,4,4,5,5,6,6,7,7,8,8,9,9,10,10,11,11,12,12,13,13,14,14],"right_children":[2,4,6,8,10,12,14,16,18,20,22,24,26,28,30,-1,-1,-1,-1,-1,-1,-1,-1,-1,-1,-1,-1,-1,-1,-1,-1],"split_conditions":[2.75E1,2.45E1,7.0735E3,4.2435E3,5E-1,1.748E3,6.25E1,2.2315E3,2.35E1,7.7315E3,1.355855E5,5E-1,1.9785E3,2.77145E4,2.561955E5,-1.0166768E-1,1.583233E-2,-7.2462703E-3,5.163284E-2,-8.4605865E-2,6.573435E-2,-7.83916E-2,-2.2751052E-2,-4.7182955E-2,-4.195671E-3,1.20685555E-1,1.015511E-2,2.9747223E-2,1.0813662E-1,7.448215E-2,-4.1758742E-2],"split_indices":[0,0,3,3,33,4,0,4,0,3,1,33,4,1,1,0,0,0,0,0,0,0,0,0,0,0,0,0,0,0,0],"split_type":[0,0,0,0,0,0,0,0,0,0,0,0,0,0,0,0,0,0,0,0,0,0,0,0,0,0,0,0,0,0,0],"sum_hessian":[2.9406907E3,4.185306E2,2.5221602E3,2.5286845E2,1.6566217E2,2.4411353E3,8.10247E1,2.5031085E2,2.5575988E0,7.9797005E1,8.5865166E1,2.3351858E3,1.0594959E2,7.148673E1,9.537957E0,2.4912099E2,1.1898541E0,1.5068331E0,1.0507659E0,7.857249E1,1.2245163E0,2.4553564E1,6.1311604E1,6.51843E2,1.6833428E3,6.703896E1,3.8910637E1,1.051586E0,7.043515E1,7.9086933E0,1.629264E0],"tree_param":{"num_deleted":"0","num_feature":"108","num_nodes":"31","size_leaf_vector":"0"}},{"base_weights":[-1.7580962E-1,-8.245595E-1,-7.173519E-2,-9.09528E-1,-3.3374107E-1,-2.3248638E-1,2.0576362E-1,-9.52582E-1,-3.3791804E-1,-8.1204474E-1,-1.2586874E-1,-4.5038712E-1,-5.171543E-2,2.5848928E-1,-6.624485E-1,4.6554622E-1,-9.6081024E-1,-9.07559E-1,6.870746E-2,-9.032563E-1,2.3285064E-1,9.158611E-2,-7.9493946E-1,-8.3245903E-1,-3.2705054E-1,-9.181901E-2,8.57671E-1,9.637968E-2,4.25742E-1,-7.413325E-1,9.7139287E-1],"categories":[],"categories_nodes":[],"categories_segments":[],"categories_sizes":[],"default_left":[true,true,true,true,true,true,true,true,true,true,true,true,true,true,true,false,false,false,false,false,false,false,false,false,false,false,false,false,false,false,false],"id":23,"left_children":[1,3,5,7,9,11,13,15,17,19,21,23,25,27,29,-1,-1,-1,-1,-1,-1,-1,-1,-1,-1,-1,-1,-1,-1,-1,-1],"loss_changes":[1.9428587E2,1.6287659E1,1.1074663E2,8.009705E0,5.8919196E0,6.1889984E1,4.1864014E1,4.1145325E0,5.91403E0,1.9334831E0,6.359123E0,3.3306732E1,3.145074E1,2.3258862E1,7.4768257E0,0E0,0E0,0E0,0E0,0E0,0E0,0E0,0E0,0E0,0E0,0E0,0E0,0E0,0E0,0E0,0E0],"parents":[2147483647,0,0,1,1,2,2,3,3,4,4,5,5,6,6,7,7,8,8,9,9,10,10,11,11,12,12,13,13,14,14],"right_children":[2,4,6,8,10,12,14,16,18,20,22,24,26,28,30,-1,-1,-1,-1,-1,-1,-1,-1,-1,-1,-1,-1,-1,-1,-1,-1],"split_conditions":[2.75E1,4.85E1,4.35E1,5E-1,2.35E1,9.5E0,5E-1,2.3874E4,2.45E1,5E-1,2.613255E5,3.95E1,1.748E3,1.05E1,1.76E3,4.655462E-2,-9.6081026E-2,-9.07559E-2,6.870746E-3,-9.032563E-2,2.3285065E-2,9.158611E-3,-7.949395E-2,-8.32459E-2,-3.2705054E-2,-9.181901E-3,8.5767105E-2,9.637969E-3,4.25742E-2,-7.413325E-2,9.713929E-2],"split_indices":[0,5,5,58,0,2,43,1,0,52,1,5,4,2,4,0,0,0,0,0,0,0,0,0,0,0,0,0,0,0,0],"split_type":[0,0,0,0,0,0,0,0,0,0,0,0,0,0,0,0,0,0,0,0,0,0,0,0,0,0,0,0,0,0,0],"sum_hessian":[2.8774067E3,3.9683093E2,2.4805757E3,3.3754364E2,5.92873E1,1.5707971E3,9.097786E2,3.1328067E2,2.4262966E1,1.7080189E1,4.220711E1,7.1157513E2,8.592219E2,8.5835394E2,5.1424713E1,1.486598E0,3.1179407E2,9.592675E0,1.4670291E1,1.5833589E1,1.2466003E0,3.2505577E1,9.701532E0,1.7224509E2,5.393301E2,8.2379205E2,3.5429867E1,4.3667914E2,4.216748E2,4.9577324E1,1.847392E0],"tree_param":{"num_deleted":"0","num_feature":"108","num_nodes":"31","size_leaf_vector":"0"}},{"base_weights":[-1.6754907E-1,-7.3602295E-1,-6.555442E-2,-9.2172784E-1,-4.3041095E-1,-1.3154376E-2,-8.8251644E-1,-9.3947345E-1,4.7276953E-1,-7.380953E-1,-1.836554E-1,-4.7636222E-2,1.02084E0,-9.139078E-1,8.887836E-1,-9.722568E-1,-4.3806896E-1,-1.883062E-1,8.0057627E-1,-8.765275E-1,-1.6067865E-1,-6.2733454E-1,-5.6114115E-2,-5.926316E-1,8.509729E-3,1.0413005E0,3.857545E-1,-9.7560143E-1,-2.3172526E-1],"categories":[],"categories_nodes":[],"categories_segments":[],"categories_sizes":[],"default_left":[true,true,true,true,true,true,true,true,true,true,true,true,true,true,false,false,false,false,false,false,false,false,false,false,false,false,false,false,false],"id":24,"left_children":[1,3,5,7,9,11,13,15,17,19,21,23,25,27,-1,-1,-1,-1,-1,-1,-1,-1,-1,-1,-1,-1,-1,-1,-1],"loss_changes":[1.6421545E2,2.405716E1,1.0286525E2,7.0549164E0,1.2371702E1,8.060302E1,8.865555E0,3.9156036E0,1.0223453E0,5.693104E0,5.2133436E0,6.693721E1,5.4634094E-1,5.78405E0,0E0,0E0,0E0,0E0,0E0,0E0,0E0,0E0,0E0,0E0,0E0,0E0,0E0,0E0,0E0],"parents":[2147483647,0,0,1,1,2,2,3,3,4,4,5,5,6,6,7,7,8,8,9,9,10,10,11,11,12,12,13,13],"right_children":[2,4,6,8,10,12,14,16,18,20,22,24,26,28,-1,-1,-1,-1,-1,-1,-1,-1,-1,-1,-1,-1,-1,-1,-1],"split_conditions":[2.85E1,5E-1,5E-1,7.7315E3,9.5E0,7.0735E3,4.2435E3,5.45E1,5E-1,4.85E1,2.45E1,3.45E1,6.95E1,5.45E1,8.8878356E-2,-9.722568E-2,-4.3806896E-2,-1.883062E-2,8.005763E-2,-8.765275E-2,-1.6067866E-2,-6.273346E-2,-5.6114118E-3,-5.926316E-2,8.509729E-4,1.0413005E-1,3.857545E-2,-9.7560145E-2,-2.3172526E-2],"split_indices":[0,33,46,3,2,3,3,5,54,5,0,5,0,5,0,0,0,0,0,0,0,0,0,0,0,0,0,0,0],"split_type":[0,0,0,0,0,0,0,0,0,0,0,0,0,0,0,0,0,0,0,0,0,0,0,0,0,0,0,0,0],"sum_hessian":[2.8320461E3,4.2987778E2,2.4021685E3,2.661413E2,1.637365E2,2.2583347E3,1.4383376E2,2.6311926E2,3.0220182E0,7.198536E1,9.175114E1,2.1863767E3,7.195779E1,1.418047E2,2.029052E0,2.4609009E2,1.7029188E1,1.142844E0,1.8791741E0,5.764685E1,1.43385105E1,1.9611107E1,7.214003E1,2.0331279E2,1.983064E3,6.9092224E1,2.865567E0,1.2964964E2,1.2155056E1],"tree_param":{"num_deleted":"0","num_feature":"108","num_nodes":"29","size_leaf_vector":"0"}},{"base_weights":[-1.3283668E-1,-4.7711155E-1,2.3643825E-2,-9.380438E-1,-3.3737922E-1,-9.928332E-3,1.0032439E0,-9.5700204E-1,3.8259566E-1,-3.8699517E-1,7.67359E-1,2.8932648E-2,-8.1911117E-1,1.0841388E0,4.1307944E-1,-9.8342824E-1,-6.8217397E-1,-1.7112699E-1,7.178496E-1,-4.1300258E-1,1.5406744E0,1.5778414E0,5.965426E-1,7.5433336E-2,-5.7254857E-1,-8.510886E-1,1.5953991E-1,8.0082697E-1,-3.638521E-2],"categories":[],"categories_nodes":[],"categories_segments":[],"categories_sizes":[],"default_left":[true,true,true,true,true,true,true,true,true,true,true,true,true,false,true,false,false,false,false,false,false,false,false,false,false,false,false,false,false],"id":25,"left_children":[1,3,5,7,9,11,13,15,17,19,21,23,25,-1,27,-1,-1,-1,-1,-1,-1,-1,-1,-1,-1,-1,-1,-1,-1],"loss_changes":[1.5077551E2,5.6011597E1,6.3317513E1,5.4458466E0,3.7168068E1,5.8581455E1,2.5978394E0,7.83844E-1,7.88485E-1,3.294381E1,3.107935E0,4.976762E1,2.8073387E0,0E0,1.6509755E0,0E0,0E0,0E0,0E0,0E0,0E0,0E0,0E0,0E0,0E0,0E0,0E0,0E0,0E0],"parents":[2147483647,0,0,1,1,2,2,3,3,4,4,5,5,6,6,7,7,8,8,9,9,10,10,11,11,12,12,14,14],"right_children":[2,4,6,8,10,12,14,16,18,20,22,24,26,-1,28,-1,-1,-1,-1,-1,-1,-1,-1,-1,-1,-1,-1,-1,-1],"split_conditions":[5E-1,2.65E1,5.0955E3,7.7315E3,4.7185E3,5E-1,6.25E1,2.55E1,5E-1,2.3655E3,4.826E3,6.15E1,7.425E2,1.08413875E-1,9.976E3,-9.834283E-2,-6.82174E-2,-1.71127E-2,7.1784966E-2,-4.130026E-2,1.5406744E-1,1.5778415E-1,5.9654262E-2,7.543334E-3,-5.725486E-2,-8.510886E-2,1.5953992E-2,8.00827E-2,-3.6385208E-3],"split_indices":[33,0,3,3,3,46,0,0,54,4,3,0,4,0,3,0,0,0,0,0,0,0,0,0,0,0,0,0,0],"split_type":[0,0,0,0,0,0,0,0,0,0,0,0,0,0,0,0,0,0,0,0,0,0,0,0,0,0,0,0,0],"sum_hessian":[2.797548E3,8.735625E2,1.9239857E3,2.0188742E2,6.716751E2,1.8611902E3,6.279552E1,1.9930171E2,2.585702E0,6.434272E2,2.824788E1,1.7768225E3,8.43676E1,5.448953E1,8.305991E0,1.7946667E2,1.9835037E1,1.1597536E0,1.4259483E0,6.3563715E2,7.7900324E0,3.4833188E0,2.476456E1,1.6501255E3,1.2669709E2,8.182433E1,2.5432656E0,4.0394626E0,4.266529E0],"tree_param":{"num_deleted":"0","num_feature":"108","num_nodes":"29","size_leaf_vector":"0"}},{"base_weights":[-1.4325921E-1,-6.2746495E-1,-4.4663124E-2,-8.484926E-1,-3.543967E-1,-1.1621533E-1,4.6661896E-1,-9.363619E-1,-6.21787E-1,-7.337976E-1,-2.5020388E-1,-7.0176825E-2,-8.039385E-1,5.2621317E-1,-1.4744096E-1,-9.5783067E-1,-1.7210473E-1,-7.350223E-1,-3.528752E-1,-8.4226465E-1,5.784323E-1,-2.9024386E-1,7.0018315E-1,-5.763867E-1,-1.6371261E-2,-8.1951445E-1,4.4305143E-1,-2.2268353E-1,5.809593E-1,-3.6599863E-1,4.6712887E-1],"categories":[],"categories_nodes":[],"categories_segments":[],"categories_sizes":[],"default_left":[true,true,true,true,true,true,true,true,true,true,true,true,true,true,true,false,false,false,false,false,false,false,false,false,false,false,false,false,false,false,false],"id":26,"left_children":[1,3,5,7,9,11,13,15,17,19,21,23,25,27,29,-1,-1,-1,-1,-1,-1,-1,-1,-1,-1,-1,-1,-1,-1,-1,-1],"loss_changes":[1.3061636E2,2.7636688E1,8.32688E1,4.499466E0,8.069679E0,6.3146965E1,1.030389E1,2.8191528E0,2.0010376E0,6.8161335E0,6.4940405E0,5.0979523E1,2.7939377E0,1.0582001E1,3.596426E0,0E0,0E0,0E0,0E0,0E0,0E0,0E0,0E0,0E0,0E0,0E0,0E0,0E0,0E0,0E0,0E0],"parents":[2147483647,0,0,1,1,2,2,3,3,4,4,5,5,6,6,7,7,8,8,9,9,10,10,11,11,12,12,13,13,14,14],"right_children":[2,4,6,8,10,12,14,16,18,20,22,24,26,28,30,-1,-1,-1,-1,-1,-1,-1,-1,-1,-1,-1,-1,-1,-1,-1,-1],"split_conditions":[2.95E1,5E-1,1.35E1,1.05E1,2.45E1,5E-1,6.15E1,5E-1,2.75E1,5E-1,1.794E3,8.5E0,1.805E3,3.25E1,1.55E1,-9.578307E-2,-1.7210474E-2,-7.3502235E-2,-3.528752E-2,-8.422647E-2,5.7843234E-2,-2.9024387E-2,7.0018314E-2,-5.763867E-2,-1.6371262E-3,-8.195145E-2,4.4305142E-2,-2.2268353E-2,5.8095932E-2,-3.6599863E-2,4.6712887E-2],"split_indices":[0,33,2,2,0,46,0,12,0,52,4,2,4,0,2,0,0,0,0,0,0,0,0,0,0,0,0,0,0,0,0],"split_type":[0,0,0,0,0,0,0,0,0,0,0,0,0,0,0,0,0,0,0,0,0,0,0,0,0,0,0,0,0,0,0],"sum_hessian":[2.735536E3,4.618796E2,2.2736562E3,2.5409892E2,2.0778067E2,1.9952065E3,2.7844974E2,1.8086627E2,7.323265E1,4.346551E1,1.6431516E2,1.871054E3,1.24152596E2,2.5394733E2,2.4502415E1,1.7567802E2,5.188255E0,5.031313E1,2.2919521E1,4.0477818E1,2.9876952E0,1.5833891E2,5.9762435E0,1.7883531E2,1.6922186E3,1.2295954E2,1.1930599E0,1.7090548E1,2.3685678E2,1.8372957E1,6.1294575E0],"tree_param":{"num_deleted":"0","num_feature":"108","num_nodes":"31","size_leaf_vector":"0"}},{"base_weights":[-1.29406E-1,-6.6603905E-1,-4.173358E-2,-9.0940726E-1,-4.4909975E-1,3.2957495E-4,-7.673723E-1,-9.335392E-1,3.4242612E-1,-5.176527E-1,1.7008744E-1,-2.8725825E-2,9.780037E-1,-7.9705167E-1,8.70809E-1,-9.550876E-1,-3.2666826E-1,7.8446484E-1,-3.832418E-1,-5.4267853E-1,5.5994636E-1,-6.723431E-1,3.474806E-1,-5.411425E-1,2.3360088E-2,1.03567E0,5.570181E-1,-8.4363246E-1,-2.1943171E-1],"categories":[],"categories_nodes":[],"categories_segments":[],"categories_sizes":[],"default_left":[true,true,true,true,true,true,true,true,true,true,true,true,true,true,false,false,false,false,false,false,false,false,false,false,false,false,false,false,false],"id":27,"left_children":[1,3,5,7,9,11,13,15,17,19,21,23,25,27,-1,-1,-1,-1,-1,-1,-1,-1,-1,-1,-1,-1,-1,-1,-1],"loss_changes":[1.27928734E2,1.975267E1,7.138785E1,5.726959E0,8.74181E0,6.2854996E1,6.924652E0,1.9879608E0,1.6212351E0,5.260483E0,3.3830023E0,5.7364292E1,9.7343445E-1,3.2155151E0,0E0,0E0,0E0,0E0,0E0,0E0,0E0,0E0,0E0,0E0,0E0,0E0,0E0,0E0,0E0],"parents":[2147483647,0,0,1,1,2,2,3,3,4,4,5,5,6,6,7,7,8,8,9,9,10,10,11,11,12,12,13,13],"right_children":[2,4,6,8,10,12,14,16,18,20,22,24,26,28,-1,-1,-1,-1,-1,-1,-1,-1,-1,-1,-1,-1,-1,-1,-1],"split_conditions":[2.85E1,2.45E1,5E-1,4.2435E3,5E-1,7.0735E3,4.225E3,5E-1,2.5135E5,5.0955E3,2.65E1,3.45E1,6.25E1,5.55E1,8.70809E-2,-9.550876E-2,-3.266683E-2,7.8446485E-2,-3.832418E-2,-5.4267853E-2,5.5994637E-2,-6.723431E-2,3.474806E-2,-5.4114252E-2,2.336009E-3,1.03567004E-1,5.570181E-2,-8.4363244E-2,-2.1943172E-2],"split_indices":[0,0,46,3,58,3,3,52,1,3,5,5,0,5,0,0,0,0,0,0,0,0,0,0,0,0,0,0,0],"split_type":[0,0,0,0,0,0,0,0,0,0,0,0,0,0,0,0,0,0,0,0,0,0,0,0,0,0,0,0,0],"sum_hessian":[2.7187065E3,3.808668E2,2.3378398E3,1.7799515E2,2.0287164E2,2.2106921E3,1.2714781E2,1.7487823E2,3.1169112E0,1.8279733E2,2.007432E1,2.1478315E3,6.2860573E1,1.2538954E2,1.7582642E0,1.6832758E2,6.550659E0,1.8866429E0,1.2302682E0,1.7913358E2,3.6637456E0,3.0064971E0,1.7067822E1,1.9731123E2,1.9505203E3,5.400314E1,8.857434E0,1.1560623E2,9.783314E0],"tree_param":{"num_deleted":"0","num_feature":"108","num_nodes":"29","size_leaf_vector":"0"}},{"base_weights":[-1.1709911E-1,-4.3606758E-1,1.5764635E-2,-6.5011585E-1,-1.2863727E-2,-5.803675E-1,6.5884955E-2,-7.736523E-1,-3.0346772E-1,-5.443296E-2,1.5528299E0,-6.176342E-1,5.510352E-1,3.8671307E-2,9.738115E-1,-7.94991E-1,6.805192E-1,-5.251525E-1,1.0198142E-1,-2.3135686E-1,3.326837E-1,-6.583752E-1,1.8565752E-1,9.064296E-1,-3.2998744E-1,-4.52609E-1,8.726875E-2,1.0587968E0,4.1679454E-1],"categories":[],"categories_nodes":[],"categories_segments":[],"categories_sizes":[],"default_left":[true,true,true,true,true,true,true,true,true,true,false,true,true,true,true,false,false,false,false,false,false,false,false,false,false,false,false,false,false],"id":28,"left_children":[1,3,5,7,9,11,13,15,17,19,-1,21,23,25,27,-1,-1,-1,-1,-1,-1,-1,-1,-1,-1,-1,-1,-1,-1],"loss_changes":[1.13809715E2,7.1525024E1,5.6707417E1,2.2222275E1,1.7414335E1,6.546749E0,4.321285E1,1.251799E1,1.2585651E1,1.7908058E1,0E0,4.801399E0,1.9342898E0,4.0640476E1,1.968174E0,0E0,0E0,0E0,0E0,0E0,0E0,0E0,0E0,0E0,0E0,0E0,0E0,0E0,0E0],"parents":[2147483647,0,0,1,1,2,2,3,3,4,4,5,5,6,6,7,7,8,8,9,9,11,11,12,12,13,13,14,14],"right_children":[2,4,6,8,10,12,14,16,18,20,-1,22,24,26,28,-1,-1,-1,-1,-1,-1,-1,-1,-1,-1,-1,-1,-1,-1],"split_conditions":[5E-1,1.25E1,7.5E0,4.15E1,2.101E3,4.225E3,5.0955E3,8.296E3,4.15E1,4.9E1,1.5528299E-1,5E-1,1.873405E5,3.45E1,6.25E1,-7.94991E-2,6.805193E-2,-5.251525E-2,1.0198141E-2,-2.3135686E-2,3.3268373E-2,-6.5837525E-2,1.8565752E-2,9.064296E-2,-3.2998744E-2,-4.5260902E-2,8.726875E-3,1.0587968E-1,4.1679453E-2],"split_indices":[33,2,2,5,4,3,3,3,0,5,0,50,1,5,0,0,0,0,0,0,0,0,0,0,0,0,0,0,0],"split_type":[0,0,0,0,0,0,0,0,0,0,0,0,0,0,0,0,0,0,0,0,0,0,0,0,0,0,0,0,0],"sum_hessian":[2.6843376E3,7.886732E2,1.8956646E3,5.2340765E2,2.6526556E2,1.461984E2,1.7494661E3,3.8497916E2,1.3842847E2,2.5934518E2,5.9203916E0,1.4197601E2,4.222372E0,1.6995669E3,4.9899208E1,3.7985837E2,5.12079E0,8.930469E1,4.912378E1,1.7827193E2,8.107324E1,1.352946E2,6.6814156E0,2.988149E0,1.2342229E0,1.5223926E2,1.5473276E3,4.2512203E1,7.3870068E0],"tree_param":{"num_deleted":"0","num_feature":"108","num_nodes":"29","size_leaf_vector":"0"}},{"base_weights":[-1.2662101E-1,-8.123219E-2,-8.706768E-1,-2.2122677E-1,1.2746504E-1,-8.8532674E-1,3.490746E-1,-2.564467E-1,5.767876E-1,6.758841E-2,6.134126E-1,-9.273771E-1,-4.4708848E-1,-6.370072E-1,-1.9070086E-1,2.7564722E-1,1.297184E0,-3.7402797E-2,3.9573014E-1,2.7840465E-1,7.011587E-1,-9.381824E-1,1.8934782E-1,-7.557837E-1,-2.4249734E-2],"categories":[],"categories_nodes":[],"categories_segments":[],"categories_sizes":[],"default_left":[true,true,true,true,true,true,false,true,true,true,true,true,true,false,false,false,false,false,false,false,false,false,false,false,false],"id":29,"left_children":[1,3,5,7,9,11,-1,13,15,17,19,21,23,-1,-1,-1,-1,-1,-1,-1,-1,-1,-1,-1,-1],"loss_changes":[8.882071E1,7.254028E1,3.0114136E0,4.1908195E1,2.8970371E1,2.3443909E0,0E0,3.5499924E1,1.3333874E1,3.0636473E1,3.016407E0,1.8148193E0,1.9446874E0,0E0,0E0,0E0,0E0,0E0,0E0,0E0,0E0,0E0,0E0,0E0,0E0],"parents":[2147483647,0,0,1,1,2,2,3,3,4,4,5,5,7,7,8,8,9,9,10,10,11,11,12,12],"right_children":[2,4,6,8,10,12,-1,14,16,18,20,22,24,-1,-1,-1,-1,-1,-1,-1,-1,-1,-1,-1,-1],"split_conditions":[5E-1,1.05E1,7.0735E3,5E-1,1.45E1,5E-1,3.490746E-2,8.5E0,2.07559E5,5E-1,5E-1,1.991E3,1.9051E5,-6.370072E-2,-1.9070087E-2,2.7564723E-2,1.2971841E-1,-3.7402797E-3,3.9573014E-2,2.7840465E-2,7.011587E-2,-9.381824E-2,1.8934783E-2,-7.557837E-2,-2.4249735E-3],"split_indices":[56,2,3,11,2,31,0,2,1,42,48,4,1,0,0,0,0,0,0,0,0,0,0,0,0],"split_type":[0,0,0,0,0,0,0,0,0,0,0,0,0,0,0,0,0,0,0,0,0,0,0,0,0],"sum_hessian":[2.6311194E3,2.4808896E3,1.5022978E2,1.4848135E3,9.960763E2,1.4871777E2,1.5120136E0,1.4227019E3,6.2111515E1,8.8782135E2,1.08254906E2,1.3467877E2,1.40390005E1,2.0829967E2,1.2144022E3,4.477661E1,1.7334906E1,6.7328516E2,2.1453621E2,2.33353E1,8.491961E1,1.3354646E2,1.1323035E0,7.659642E0,6.379358E0],"tree_param":{"num_deleted":"0","num_feature":"108","num_nodes":"25","size_leaf_vector":"0"}},{"base_weights":[-9.375643E-2,-3.9712876E-1,2.8184345E-2,-6.3165486E-1,-8.2033806E-2,6.1168116E-2,-7.8133285E-1,-8.1393707E-1,-3.8745266E-1,2.0123412E-1,-3.5585323E-1,3.6150344E-2,9.819289E-1,-8.2110673E-1,4.7408143E-1,-8.3254856E-1,6.2048715E-1,-3.4668107E-2,-6.235516E-1,-1.7127683E-2,6.1644906E-1,-4.2705435E-1,8.9538383E-1,6.2483005E-2,-9.541946E-1,1.0372231E0,-9.2126966E-2,-3.3805406E-1,-9.0301585E-1],"categories":[],"categories_nodes":[],"categories_segments":[],"categories_sizes":[],"default_left":[true,true,true,true,true,true,true,true,true,true,true,true,true,true,false,false,false,false,false,false,false,false,false,false,false,false,false,false,false],"id":30,"left_children":[1,3,5,7,9,11,13,15,17,19,21,23,25,27,-1,-1,-1,-1,-1,-1,-1,-1,-1,-1,-1,-1,-1,-1,-1],"loss_changes":[9.637817E1,5.5145065E1,4.968588E1,1.8739365E1,2.4882057E1,4.113302E1,4.02705E0,7.0358734E0,1.537624E1,1.4323354E1,1.4904726E1,4.546083E1,2.9008865E0,2.503254E0,0E0,0E0,0E0,0E0,0E0,0E0,0E0,0E0,0E0,0E0,0E0,0E0,0E0,0E0,0E0],"parents":[2147483647,0,0,1,1,2,2,3,3,4,4,5,5,6,6,7,7,8,8,9,9,10,10,11,11,12,12,13,13],"right_children":[2,4,6,8,10,12,14,16,18,20,22,24,26,28,-1,-1,-1,-1,-1,-1,-1,-1,-1,-1,-1,-1,-1,-1,-1],"split_conditions":[5E-1,1.05E1,5E-1,3.85E1,5E-1,5.0955E3,1.76E3,8.0285E3,5E-1,4.25E1,1.55E1,3.12E3,6.95E1,3.95745E4,4.7408145E-2,-8.325486E-2,6.2048715E-2,-3.4668108E-3,-6.235516E-2,-1.7127683E-3,6.1644908E-2,-4.2705435E-2,8.953839E-2,6.2483004E-3,-9.541946E-2,1.0372231E-1,-9.212697E-3,-3.3805408E-2,-9.030159E-2],"split_indices":[33,2,43,0,64,3,4,3,64,0,2,3,0,1,0,0,0,0,0,0,0,0,0,0,0,0,0,0,0],"split_type":[0,0,0,0,0,0,0,0,0,0,0,0,0,0,0,0,0,0,0,0,0,0,0,0,0,0,0,0,0],"sum_hessian":[2.6039731E3,7.459336E2,1.8580397E3,4.27064E2,3.188696E2,1.7861859E3,7.185369E1,2.4319815E2,1.8386584E2,1.56861E2,1.620086E2,1.7399495E3,4.6236492E1,6.998246E1,1.8712262E0,2.4049733E2,2.700829E0,7.4176476E1,1.0968937E2,1.0342728E2,5.343372E1,1.5390916E2,8.099441E0,1.6957961E3,4.415327E1,4.4005318E1,2.2311757E0,1.0889527E1,5.9092934E1],"tree_param":{"num_deleted":"0","num_feature":"108","num_nodes":"29","size_leaf_vector":"0"}},{"base_weights":[-8.2054555E-2,-5.441089E-1,-7.736451E-3,-6.9470817E-1,2.0951854E-1,-2.4752282E-1,1.2880625E-1,-7.7692693E-1,-6.65832E-2,-1.414222E-1,6.504863E-1,-1.9283298E-1,-8.4559345E-1,1.5823439E-1,-6.706112E-1,-8.067961E-1,4.1028345E-1,-1.6992782E-1,1.4639096E0,-4.4298896E-1,6.099732E-1,-3.358969E-1,8.4297484E-1,-4.0944058E-1,-5.901997E-2,-9.028285E-1,-3.483586E-1,1.9165489E-1,-6.1753243E-1,-7.348028E-1,8.067654E-1],"categories":[],"categories_nodes":[],"categories_segments":[],"categories_sizes":[],"default_left":[true,true,true,true,true,true,true,true,true,true,true,true,true,true,true,false,false,false,false,false,false,false,false,false,false,false,false,false,false,false,false],"id":31,"left_children":[1,3,5,7,9,11,13,15,17,19,21,23,25,27,29,-1,-1,-1,-1,-1,-1,-1,-1,-1,-1,-1,-1,-1,-1,-1,-1],"loss_changes":[8.873766E1,4.078344E1,7.2953835E1,1.5371841E1,9.439526E0,2.6279839E1,3.3507126E1,9.692429E0,5.889265E0,8.077836E0,5.3994226E0,2.1482815E1,1.6047287E0,3.5642536E1,5.391514E0,0E0,0E0,0E0,0E0,0E0,0E0,0E0,0E0,0E0,0E0,0E0,0E0,0E0,0E0,0E0,0E0],"parents":[2147483647,0,0,1,1,2,2,3,3,4,4,5,5,6,6,7,7,8,8,9,9,10,10,11,11,12,12,13,13,14,14],"right_children":[2,4,6,8,10,12,14,16,18,20,22,24,26,28,30,-1,-1,-1,-1,-1,-1,-1,-1,-1,-1,-1,-1,-1,-1,-1,-1],"split_conditions":[3.55E1,5E-1,3.65E1,1.35E1,1.05E1,5E-1,5E-1,1.8205E3,3.65179E5,5E-1,5E-1,9.5E0,5E-1,5E-1,9.2E1,-8.067961E-2,4.1028347E-2,-1.6992783E-2,1.4639096E-1,-4.42989E-2,6.099732E-2,-3.358969E-2,8.4297486E-2,-4.094406E-2,-5.9019974E-3,-9.028285E-2,-3.483586E-2,1.916549E-2,-6.1753243E-2,-7.348028E-2,8.067654E-2],"split_indices":[5,58,0,2,2,56,43,4,1,39,105,2,48,46,5,0,0,0,0,0,0,0,0,0,0,0,0,0,0,0,0],"split_type":[0,0,0,0,0,0,0,0,0,0,0,0,0,0,0,0,0,0,0,0,0,0,0,0,0,0,0,0,0,0,0],"sum_hessian":[2.5832878E3,3.5705646E2,2.2262312E3,2.9765378E2,5.94027E1,8.0744403E2,1.4187874E3,2.629923E2,3.4661446E1,3.345616E1,2.5946535E1,7.4100604E2,6.643797E1,1.3691869E3,4.9600414E1,2.5685062E2,6.141703E0,3.3301758E1,1.3596879E0,2.4167263E1,9.2889E0,4.114954E0,2.1831581E1,2.8217697E2,4.5882907E2,5.8848423E1,7.58955E0,1.3133595E3,5.5827385E1,4.8016727E1,1.583684E0],"tree_param":{"num_deleted":"0","num_feature":"108","num_nodes":"31","size_leaf_vector":"0"}},{"base_weights":[-7.922162E-2,-8.432187E-1,-3.6963254E-2,-8.6179346E-1,5.2028716E-1,-1.0787653E-1,3.2493383E-1,-9.3399334E-1,-4.0630403E-1,-2.9407337E-1,2.4926726E-2,3.9879626E-1,-1.7646895E-1,-9.477589E-1,-2.8897938E-1,-7.904673E-1,5.3647123E-2,-6.3220084E-1,-1.9413854E-1,-2.198658E-2,5.347079E-1,1.8775655E-1,5.412856E-1,-3.340549E-1,1.2513728E0],"categories":[],"categories_nodes":[],"categories_segments":[],"categories_sizes":[],"default_left":[true,true,true,true,false,true,true,true,true,true,true,true,true,false,false,false,false,false,false,false,false,false,false,false,false],"id":32,"left_children":[1,3,5,7,-1,9,11,13,15,17,19,21,23,-1,-1,-1,-1,-1,-1,-1,-1,-1,-1,-1,-1],"loss_changes":[8.175115E1,3.809822E0,6.166273E1,3.9389877E0,0E0,4.9677307E1,1.4651081E1,7.257004E-1,3.5298433E0,2.8137054E1,2.8073565E1,1.022649E1,1.1948221E1,0E0,0E0,0E0,0E0,0E0,0E0,0E0,0E0,0E0,0E0,0E0,0E0],"parents":[2147483647,0,0,1,1,2,2,3,3,5,5,6,6,7,7,8,8,9,9,10,10,11,11,12,12],"right_children":[2,4,6,8,-1,10,12,14,16,18,20,22,24,-1,-1,-1,-1,-1,-1,-1,-1,-1,-1,-1,-1],"split_conditions":[2.45E1,1.832E3,5E-1,4.55E1,5.2028716E-2,9.5E0,5E-1,5E-1,1.974655E5,5E-1,1.45E1,3.95E1,7.82E2,-9.477589E-2,-2.889794E-2,-7.904673E-2,5.3647123E-3,-6.322008E-2,-1.9413855E-2,-2.198658E-3,5.347079E-2,1.8775655E-2,5.4128557E-2,-3.340549E-2,1.2513728E-1],"split_indices":[0,4,42,5,0,2,12,8,1,33,2,0,4,0,0,0,0,0,0,0,0,0,0,0,0],"split_type":[0,0,0,0,0,0,0,0,0,0,0,0,0,0,0,0,0,0,0,0,0,0,0,0,0],"sum_hessian":[2.5321155E3,1.3172266E2,2.4003928E3,1.3031535E2,1.4073023E0,2.0076903E3,3.9270248E2,1.1157846E2,1.8736895E1,8.3531805E2,1.1723722E3,3.4245895E2,5.0243534E1,1.0878741E2,2.7910504E0,9.818028E0,8.918865E0,1.8934543E2,6.4597266E2,1.0744512E3,9.792096E1,1.3896167E2,2.0349727E2,4.5939404E1,4.3041306E0],"tree_param":{"num_deleted":"0","num_feature":"108","num_nodes":"25","size_leaf_vector":"0"}},{"base_weights":[-7.464542E-2,-3.5730955E-1,3.2524396E-2,-5.263102E-1,-2.4747213E-2,1.2805121E-3,6.596203E-1,-6.939879E-1,-2.6280975E-1,-6.0792312E-2,1.4212855E0,1.604474E-2,-1.5658113E0,1.2454419E0,-7.3162365E-1,-8.431246E-1,-5.2146316E-1,-3.0997497E-1,1.4070041E0,-4.170541E-1,5.9315447E-2,-4.4365382E-1,5.8607876E-2,1.4485971E0,1.0648224E0,-1.989344E0,1.5537041E-1],"categories":[],"categories_nodes":[],"categories_segments":[],"categories_sizes":[],"default_left":[true,true,true,true,true,true,true,true,true,true,false,true,false,true,true,false,false,false,false,false,false,false,false,false,false,false,false],"id":33,"left_children":[1,3,5,7,9,11,13,15,17,19,-1,21,-1,23,25,-1,-1,-1,-1,-1,-1,-1,-1,-1,-1,-1,-1],"loss_changes":[7.652844E1,3.901892E1,3.5901352E1,2.016069E1,1.23379E1,4.0432465E1,7.178667E1,6.7843475E0,1.4664494E1,9.879009E0,0E0,3.389777E1,0E0,7.165222E-1,2.9757778E1,0E0,0E0,0E0,0E0,0E0,0E0,0E0,0E0,0E0,0E0,0E0,0E0],"parents":[2147483647,0,0,1,1,2,2,3,3,4,4,5,5,6,6,7,7,8,8,9,9,11,11,13,13,14,14],"right_children":[2,4,6,8,10,12,14,16,18,20,-1,22,-1,24,26,-1,-1,-1,-1,-1,-1,-1,-1,-1,-1,-1,-1],"split_conditions":[5E-1,4.45E1,1.7825E3,1.05E1,2.3915E3,1.529E3,1.9895E3,3.75E1,2.232E3,9.5E0,1.4212856E-1,3.25E1,-1.5658113E-1,1.8945E3,2.1685E3,-8.431246E-2,-5.2146316E-2,-3.0997498E-2,1.4070041E-1,-4.170541E-2,5.9315446E-3,-4.4365384E-2,5.860788E-3,1.4485972E-1,1.06482245E-1,-1.989344E-1,1.5537041E-2],"split_indices":[33,5,4,2,4,4,4,0,4,2,0,5,0,4,4,0,0,0,0,0,0,0,0,0,0,0,0],"split_type":[0,0,0,0,0,0,0,0,0,0,0,0,0,0,0,0,0,0,0,0,0,0,0,0,0,0,0],"sum_hessian":[2.524886E3,6.9347845E2,1.8314076E3,4.5942596E2,2.3405247E2,1.745446E3,8.596155E1,2.7976477E2,1.7966121E2,2.2929483E2,4.757648E0,1.7301355E3,1.5310569E1,6.0564144E1,2.5397404E1,1.4796844E2,1.3179633E2,1.7551793E2,4.143277E0,5.718909E1,1.7210574E2,1.458182E2,1.5843173E3,2.5199911E1,3.5364235E1,9.989674E0,1.5407731E1],"tree_param":{"num_deleted":"0","num_feature":"108","num_nodes":"27","size_leaf_vector":"0"}},{"base_weights":[-6.4396E-2,-5.414897E-1,-7.896978E-4,-3.184301E-1,-8.091594E-1,-2.3117948E-2,9.263476E-1,-4.6530274E-1,-4.6931155E-2,-8.3448446E-1,3.7200052E-1,1.7688727E-2,-4.956996E-1,9.93197E-1,5.017979E-1,-5.1190865E-1,9.2697746E-1,-1.7197843E-1,3.2174537E-1,-8.8183E-1,-2.2090977E-1,-1.8353598E-1,6.948E-1,4.9429383E-2,-6.2590504E-1,-5.671538E-1,3.1981105E-1,1.0042862E0,2.823213E-1,-1.8681332E-1,9.2608106E-1],"categories":[],"categories_nodes":[],"categories_segments":[],"categories_sizes":[],"default_left":[true,true,true,true,true,true,true,true,true,true,true,true,true,true,true,false,false,false,false,false,false,false,false,false,false,false,false,false,false,false,false],"id":34,"left_children":[1,3,5,7,9,11,13,15,17,19,21,23,25,27,29,-1,-1,-1,-1,-1,-1,-1,-1,-1,-1,-1,-1,-1,-1,-1,-1],"loss_changes":[7.5813095E1,1.7289406E1,4.567618E1,6.436117E0,4.286995E0,4.1557426E1,9.7423935E-1,7.2868557E0,2.7277114E0,3.5949326E0,7.51961E-1,4.0564884E1,1.0162495E1,6.1805725E-2,2.8258564E0,0E0,0E0,0E0,0E0,0E0,0E0,0E0,0E0,0E0,0E0,0E0,0E0,0E0,0E0,0E0,0E0],"parents":[2147483647,0,0,1,1,2,2,3,3,4,4,5,5,6,6,7,7,8,8,9,9,10,10,11,11,12,12,13,13,14,14],"right_children":[2,4,6,8,10,12,14,16,18,20,22,24,26,28,30,-1,-1,-1,-1,-1,-1,-1,-1,-1,-1,-1,-1,-1,-1,-1,-1],"split_conditions":[2.85E1,5E-1,7.0735E3,4.15E1,7.7315E3,6.15E1,6.25E1,1.8815E3,5E-1,5E-1,2.25E1,5E-1,5E-1,5E-1,1.05855E4,-5.1190864E-2,9.269775E-2,-1.7197844E-2,3.217454E-2,-8.8183E-2,-2.2090977E-2,-1.8353598E-2,6.948E-2,4.942938E-3,-6.25905E-2,-5.671538E-2,3.1981107E-2,1.0042862E-1,2.8232131E-2,-1.8681332E-2,9.260811E-2],"split_indices":[0,35,3,5,3,0,0,4,24,42,0,46,11,36,3,0,0,0,0,0,0,0,0,0,0,0,0,0,0,0,0],"split_type":[0,0,0,0,0,0,0,0,0,0,0,0,0,0,0,0,0,0,0,0,0,0,0,0,0,0,0,0,0,0,0],"sum_hessian":[2.4972898E3,2.928897E2,2.2044001E3,1.6095186E2,1.3193785E2,2.153512E3,5.088797E1,1.03985214E2,5.6966652E1,1.2945572E2,2.4821336E0,1.9832262E3,1.7028586E2,4.2808025E1,8.079944E0,1.0122894E2,2.756265E0,4.2936893E1,1.4029759E1,1.1977618E2,9.679544E0,1.070769E0,1.4113646E0,1.8908945E3,9.233164E1,1.5684758E2,1.3438284E1,4.1744106E1,1.0639192E0,3.293802E0,4.786142E0],"tree_param":{"num_deleted":"0","num_feature":"108","num_nodes":"31","size_leaf_vector":"0"}},{"base_weights":[-6.368028E-2,-1.7983036E-1,1.3175754E-1,-2.501439E-1,2.5122124E-1,1.8707585E-1,-1.9307686E-1,-3.0203584E-1,2.3470321E-1,3.724776E-1,1.8490817E-2,1.1348245E-1,4.3557796E-1,-2.8590772E-1,1.0771333E0,-6.0871035E-1,-1.6888525E-1,7.026156E-2,5.5795276E-1,-5.1189524E-1,4.3861607E-1,-2.1108362E-1,4.0061218E-1,-1.2104638E-1,2.17021E-1,1.6306649E-1,6.0381943E-1,-2.6256766E-2,-4.7516507E-1],"categories":[],"categories_nodes":[],"categories_segments":[],"categories_sizes":[],"default_left":[true,true,true,true,true,true,true,true,true,true,true,true,true,true,false,false,false,false,false,false,false,false,false,false,false,false,false,false,false],"id":35,"left_children":[1,3,5,7,9,11,13,15,17,19,21,23,25,27,-1,-1,-1,-1,-1,-1,-1,-1,-1,-1,-1,-1,-1,-1,-1],"loss_changes":[5.643358E1,4.7317123E1,1.6691988E1,3.3808556E1,6.177623E0,1.4444551E1,1.6270306E1,4.9377174E1,6.8819413E0,8.649059E0,6.762388E0,1.4906921E1,8.187542E0,6.2255917E0,0E0,0E0,0E0,0E0,0E0,0E0,0E0,0E0,0E0,0E0,0E0,0E0,0E0,0E0,0E0],"parents":[2147483647,0,0,1,1,2,2,3,3,4,4,5,5,6,6,7,7,8,8,9,9,10,10,11,11,12,12,13,13],"right_children":[2,4,6,8,10,12,14,16,18,20,22,24,26,28,-1,-1,-1,-1,-1,-1,-1,-1,-1,-1,-1,-1,-1,-1,-1],"split_conditions":[4.35E1,5E-1,5E-1,5E-1,5E-1,5E-1,5E-1,5E-1,5E-1,2.35E1,5E-1,5E-1,1.05E1,9.5E0,1.07713334E-1,-6.0871035E-2,-1.6888525E-2,7.026156E-3,5.579528E-2,-5.1189523E-2,4.386161E-2,-2.1108363E-2,4.0061217E-2,-1.2104638E-2,2.1702101E-2,1.630665E-2,6.0381945E-2,-2.6256766E-3,-4.7516506E-2],"split_indices":[5,48,12,58,64,42,29,53,39,5,58,53,2,2,0,0,0,0,0,0,0,0,0,0,0,0,0,0,0],"split_type":[0,0,0,0,0,0,0,0,0,0,0,0,0,0,0,0,0,0,0,0,0,0,0,0,0,0,0,0,0],"sum_hessian":[2.484004E3,1.5580962E3,9.2590765E2,1.3399431E3,2.1815309E2,7.9153564E2,1.34372E2,1.210738E3,1.2920512E2,1.430311E2,7.5122E1,6.1180695E2,1.7972871E2,1.25942635E2,8.429359E0,3.654519E2,8.452861E2,8.644611E1,4.275901E1,9.483425E0,1.3354767E2,4.7207714E1,2.7914291E1,1.8732388E2,4.2448306E2,6.935661E1,1.1037211E2,5.357683E1,7.23658E1],"tree_param":{"num_deleted":"0","num_feature":"108","num_nodes":"29","size_leaf_vector":"0"}},{"base_weights":[-5.650229E-2,-4.4766325E-1,1.1466255E-2,-5.5657923E-1,6.641008E-2,-1.0089838E-1,1.6949241E-1,-8.473545E-1,-3.528518E-1,-2.2038986E-1,4.1014546E-1,-6.683592E-2,-7.4713385E-1,-2.5677475E-1,2.1609454E-1,-9.378508E-1,-2.7250108E-1,-4.6900323E-1,2.2982456E-1,-4.46788E-1,2.8496587E-1,5.6637996E-1,-8.04512E-1,-1.3217023E-1,2.6465932E-1,-7.8217787E-1,1.9792508E-1,-3.4482813E-1,7.212011E-1,2.7596223E-1,-2.4463984E-1],"categories":[],"categories_nodes":[],"categories_segments":[],"categories_sizes":[],"default_left":[true,true,true,true,true,true,true,true,true,true,true,true,true,true,true,false,false,false,false,false,false,false,false,false,false,false,false,false,false,false,false],"id":36,"left_children":[1,3,5,7,9,11,13,15,17,19,21,23,25,27,29,-1,-1,-1,-1,-1,-1,-1,-1,-1,-1,-1,-1,-1,-1,-1,-1],"loss_changes":[6.517264E1,2.0355255E1,3.7114998E1,1.7446022E1,6.4328523E0,2.6841719E1,1.7310007E1,6.1273575E0,1.2144686E1,4.2144656E0,6.075338E0,2.5192726E1,2.1773796E0,7.659513E0,2.167976E1,0E0,0E0,0E0,0E0,0E0,0E0,0E0,0E0,0E0,0E0,0E0,0E0,0E0,0E0,0E0,0E0],"parents":[2147483647,0,0,1,1,2,2,3,3,4,4,5,5,6,6,7,7,8,8,9,9,10,10,11,11,12,12,13,13,14,14],"right_children":[2,4,6,8,10,12,14,16,18,20,22,24,26,28,30,-1,-1,-1,-1,-1,-1,-1,-1,-1,-1,-1,-1,-1,-1,-1,-1],"split_conditions":[3.85E1,5E-1,4.35E1,4.05E1,1.05E1,5E-1,8.5E0,5E-1,1.35E1,5E-1,5.45E1,5E-1,1.534E3,5E-1,5E-1,-9.378508E-2,-2.725011E-2,-4.6900325E-2,2.2982456E-2,-4.4678804E-2,2.8496588E-2,5.6638E-2,-8.0451205E-2,-1.3217024E-2,2.6465932E-2,-7.821779E-2,1.9792508E-2,-3.4482814E-2,7.2120115E-2,2.7596224E-2,-2.4463985E-2],"split_indices":[5,58,0,0,2,56,2,48,2,39,0,42,4,42,12,0,0,0,0,0,0,0,0,0,0,0,0,0,0,0,0],"split_type":[0,0,0,0,0,0,0,0,0,0,0,0,0,0,0,0,0,0,0,0,0,0,0,0,0,0,0,0,0,0,0],"sum_hessian":[2.4501375E3,3.618861E2,2.0882515E3,2.9855005E2,6.3336056E1,1.2206609E3,8.675905E2,1.2169641E2,1.7685362E2,3.4723175E1,2.861288E1,1.1605907E3,6.0070213E1,8.505818E1,7.8253235E2,1.0459853E2,1.7097878E1,1.4762164E2,2.9231989E1,2.4060171E1,1.0663005E1,2.5824884E1,2.7879963E0,9.7001245E2,1.9057823E2,5.8088562E1,1.9816504E0,7.862636E1,6.4318256E0,6.928984E2,8.963395E1],"tree_param":{"num_deleted":"0","num_feature":"108","num_nodes":"31","size_leaf_vector":"0"}},{"base_weights":[-3.58634E-2,-2.7045912E-1,7.2751485E-2,-8.7904996E-1,-2.0275591E-1,1.2101264E-1,-3.6899525E-1,-9.005959E-1,3.6090666E-1,-2.6067296E-1,3.5809264E-1,1.5092036E-1,-5.544897E-1,-4.376058E-1,3.599954E-1,-9.7304624E-1,-3.8603568E-1,-3.7671763E-1,1.4916112E-2,-9.006283E-1,4.3882936E-1,1.7667301E-1,-5.4276377E-1,-6.5898937E-1,3.394589E-1,-4.749637E-1,6.002722E-1,-5.150239E-1,4.850726E-1],"categories":[],"categories_nodes":[],"categories_segments":[],"categories_sizes":[],"default_left":[true,true,true,true,true,true,true,true,false,true,true,true,true,true,true,false,false,false,false,false,false,false,false,false,false,false,false,false,false],"id":37,"left_children":[1,3,5,7,9,11,13,15,-1,17,19,21,23,25,27,-1,-1,-1,-1,-1,-1,-1,-1,-1,-1,-1,-1,-1,-1],"loss_changes":[6.189779E1,3.149633E1,3.544963E1,2.3730164E0,2.2606333E1,3.0345291E1,8.350784E0,2.4440231E0,0E0,2.0114494E1,7.030716E0,2.5734158E1,6.1763687E0,6.1076794E0,1.8520839E0,0E0,0E0,0E0,0E0,0E0,0E0,0E0,0E0,0E0,0E0,0E0,0E0,0E0,0E0],"parents":[2147483647,0,0,1,1,2,2,3,3,4,4,5,5,6,6,7,7,9,9,10,10,11,11,12,12,13,13,14,14],"right_children":[2,4,6,8,10,12,14,16,-1,18,20,22,24,26,28,-1,-1,-1,-1,-1,-1,-1,-1,-1,-1,-1,-1,-1,-1],"split_conditions":[3.55E1,2.35E1,6.15E1,1.9875E3,5E-1,5E-1,5E-1,4.55E1,3.609067E-2,4.85E1,8.5E0,5E-1,5.55E1,1.55E1,6.25E1,-9.730463E-2,-3.860357E-2,-3.7671763E-2,1.4916112E-3,-9.0062834E-2,4.3882936E-2,1.7667301E-2,-5.4276377E-2,-6.589894E-2,3.3945892E-2,-4.749637E-2,6.002722E-2,-5.1502388E-2,4.8507262E-2],"split_indices":[0,0,0,4,58,46,11,5,0,5,2,43,5,2,0,0,0,0,0,0,0,0,0,0,0,0,0,0,0],"split_type":[0,0,0,0,0,0,0,0,0,0,0,0,0,0,0,0,0,0,0,0,0,0,0,0,0,0,0,0,0],"sum_hessian":[2.4274414E3,7.6773395E2,1.6597075E3,7.565748E1,6.920765E2,1.4968965E3,1.6281102E2,7.4634285E1,1.0231881E0,6.277826E2,6.42939E1,1.4341753E3,6.2721226E1,1.4917116E2,1.3639865E1,6.4641685E1,9.992603E0,4.4150662E2,1.8627597E2,3.2632518E0,6.1030647E1,1.3835568E3,5.0618484E1,5.6392014E1,6.329212E0,1.445119E2,4.6592593E0,1.3159629E0,1.2323902E1],"tree_param":{"num_deleted":"0","num_feature":"108","num_nodes":"29","size_leaf_vector":"0"}},{"base_weights":[-4.7357414E-2,-1.6764015E-2,-7.9249454E-1,-3.8679805E-2,9.4675374E-1,-8.268992E-1,4.1232687E-1,-1.444685E-1,1.3603841E-1,-7.498808E-2,9.7520196E-1,-8.455871E-1,4.3751317E-1,-1.9387138E-1,2.681287E-1,1.9542406E-1,-2.070993E-1,1.0185101E0,6.0128134E-1,-8.807183E-1,-4.3426174E-1],"categories":[],"categories_nodes":[],"categories_segments":[],"categories_sizes":[],"default_left":[true,true,true,true,true,true,false,true,true,false,true,true,false,false,false,false,false,false,false,false,false],"id":38,"left_children":[1,3,5,7,9,11,-1,13,15,-1,17,19,-1,-1,-1,-1,-1,-1,-1,-1,-1],"loss_changes":[5.4733288E1,4.8770107E1,4.266056E0,4.1745506E1,1.5661583E0,2.5531845E0,0E0,2.8723507E1,1.7399931E1,0E0,1.9802094E-1,9.3816376E-1,0E0,0E0,0E0,0E0,0E0,0E0,0E0,0E0,0E0],"parents":[2147483647,0,0,1,1,2,2,3,3,4,4,5,5,7,7,8,8,10,10,11,11],"right_children":[2,4,6,8,10,12,-1,14,16,-1,18,20,-1,-1,-1,-1,-1,-1,-1,-1,-1],"split_conditions":[5E-1,7.0735E3,4.7185E3,4.45E1,5E0,5E-1,4.1232686E-2,5E-1,5E-1,-7.498808E-3,5E-1,5E-1,4.3751318E-2,-1.9387139E-2,2.681287E-2,1.9542407E-2,-2.070993E-2,1.0185101E-1,6.0128134E-2,-8.807183E-2,-4.3426175E-2],"split_indices":[56,3,3,5,2,34,0,58,12,0,12,41,0,0,0,0,0,0,0,0,0],"split_type":[0,0,0,0,0,0,0,0,0,0,0,0,0,0,0,0,0,0,0,0,0],"sum_hessian":[2.4005576E3,2.306866E3,9.3691444E1,2.2565005E3,5.036561E1,9.1395256E1,2.2961917E0,1.4056052E3,8.508952E2,1.3200222E0,4.9045586E1,9.039053E1,1.0047227E0,1.2557737E3,1.4983163E2,7.257267E2,1.2516851E2,4.2409756E1,6.6358314E0,8.2226425E1,8.164108E0],"tree_param":{"num_deleted":"0","num_feature":"108","num_nodes":"21","size_leaf_vector":"0"}},{"base_weights":[-4.846135E-2,-6.8975806E-2,7.539792E-1,-2.9210794E-1,6.4449473E-3,8.2354105E-1,3.573059E-2,-5.01725E-1,-6.376449E-2,3.0675383E-2,-9.1212887E-1,-1.5135627E-2,8.7321633E-1,-6.134851E-1,8.1599313E-1,-6.4273447E-1,-2.0607816E-1,-2.9962835E-1,1.7336398E-1,1.1749374E-2,1.9718469E0,-1.5376817E0,-6.666179E-2,-6.154049E-1,3.932673E-1,9.290324E-1,3.010303E-1,-8.011179E-1,-1.7764191E-1],"categories":[],"categories_nodes":[],"categories_segments":[],"categories_sizes":[],"default_left":[true,true,true,true,true,true,true,true,true,true,true,true,true,true,false,false,false,false,false,false,false,false,false,false,false,false,false,false,false],"id":39,"left_children":[1,3,5,7,9,11,13,15,17,19,21,23,25,27,-1,-1,-1,-1,-1,-1,-1,-1,-1,-1,-1,-1,-1,-1,-1],"loss_changes":[3.995517E1,3.979359E1,2.9937706E0,2.8559711E1,3.9382637E1,2.3096352E0,3.7365797E0,1.284523E1,1.6106504E1,6.330256E1,2.3948437E1,1.2386186E0,1.3828468E0,1.8952298E-1,0E0,0E0,0E0,0E0,0E0,0E0,0E0,0E0,0E0,0E0,0E0,0E0,0E0,0E0,0E0],"parents":[2147483647,0,0,1,1,2,2,3,3,4,4,5,5,6,6,7,7,8,8,9,9,10,10,11,11,12,12,13,13],"right_children":[2,4,6,8,10,12,14,16,18,20,22,24,26,28,-1,-1,-1,-1,-1,-1,-1,-1,-1,-1,-1,-1,-1,-1,-1],"split_conditions":[5.119E3,5E-1,5E-1,1.05E1,3.12E3,2.45E1,7.6695E3,4.05E1,5E-1,3.032E3,4.225E3,9.5E0,5E-1,1.25E1,8.159932E-2,-6.427345E-2,-2.0607816E-2,-2.9962836E-2,1.7336398E-2,1.1749374E-3,1.971847E-1,-1.5376817E-1,-6.6661793E-3,-6.1540492E-2,3.932673E-2,9.290324E-2,3.0103032E-2,-8.0111794E-2,-1.7764192E-2],"split_indices":[3,33,57,2,3,5,3,5,65,3,3,2,31,2,0,0,0,0,0,0,0,0,0,0,0,0,0,0,0],"split_type":[0,0,0,0,0,0,0,0,0,0,0,0,0,0,0,0,0,0,0,0,0,0,0,0,0,0,0,0,0],"sum_hessian":[2.4230107E3,2.3635015E3,5.9509052E1,5.9634454E2,1.767157E3,5.4120888E1,5.388164E0,3.1029733E2,2.8604718E2,1.7226821E3,4.447486E1,3.0652375E0,5.1055653E1,3.0577312E0,2.3304331E0,2.0929813E2,1.00999214E2,1.4327385E2,1.4277333E2,1.7070449E3,1.5637272E1,2.5091309E1,1.938355E1,1.0358667E0,2.0293708E0,4.594966E1,5.105991E0,1.5516502E0,1.506081E0],"tree_param":{"num_deleted":"0","num_feature":"108","num_nodes":"29","size_leaf_vector":"0"}},{"base_weights":[-4.826114E-2,-6.792647E-1,-1.3364293E-2,-7.733407E-1,-2.7489537E-1,-4.042814E-2,5.7923436E-1,-8.063172E-1,5.406369E-1,-4.180076E-1,3.7189108E-1,-2.6981283E-2,-1.3895032E0,1.0297126E0,-9.4727315E-2,-9.48651E-1,-5.888081E-1,7.3105156E-1,7.497954E-2,-5.5222034E-1,4.9559012E-1,8.047427E-1,-6.1564887E-1,-3.1636674E-2,3.7900634E0,1.1756027E0,-9.770803E-1,-1.6979238E0,5.763315E-1],"categories":[],"categories_nodes":[],"categories_segments":[],"categories_sizes":[],"default_left":[true,true,true,true,true,true,true,true,true,true,true,true,false,true,true,false,false,false,false,false,false,false,false,false,false,false,false,false,false],"id":40,"left_children":[1,3,5,7,9,11,13,15,17,19,21,23,-1,25,27,-1,-1,-1,-1,-1,-1,-1,-1,-1,-1,-1,-1,-1,-1],"loss_changes":[5.2300278E1,4.5224686E0,3.614201E1,4.787468E0,2.473604E0,3.9049423E1,2.9979694E1,2.486847E0,2.1627116E-1,2.8458493E0,2.661205E0,3.8047756E1,0E0,1.8444828E1,4.438544E1,0E0,0E0,0E0,0E0,0E0,0E0,0E0,0E0,0E0,0E0,0E0,0E0,0E0,0E0],"parents":[2147483647,0,0,1,1,2,2,3,3,4,4,5,5,6,6,7,7,8,8,9,9,10,10,11,11,13,13,14,14],"right_children":[2,4,6,8,10,12,14,16,18,20,22,24,-1,26,28,-1,-1,-1,-1,-1,-1,-1,-1,-1,-1,-1,-1,-1,-1],"split_conditions":[2.55E1,4.55E1,1.748E3,1.8815E3,5E-1,1.5685E3,1.9785E3,2.35E1,5E-1,3.74238E5,2.594935E5,1.5515E3,-1.3895033E-1,5E-1,2.1615E3,-9.4865106E-2,-5.8880813E-2,7.310516E-2,7.4979546E-3,-5.5222034E-2,4.9559012E-2,8.047427E-2,-6.156489E-2,-3.1636674E-3,3.7900636E-1,1.1756027E-1,-9.770803E-2,-1.6979238E-1,5.763315E-2],"split_indices":[0,5,4,4,41,4,4,0,53,1,1,4,0,54,4,0,0,0,0,0,0,0,0,0,0,0,0,0,0],"split_type":[0,0,0,0,0,0,0,0,0,0,0,0,0,0,0,0,0,0,0,0,0,0,0,0,0,0,0,0,0],"sum_hessian":[2.3745347E3,1.23471016E2,2.2510635E3,9.9427E1,2.4044014E1,2.1536392E3,9.742443E1,9.73697E1,2.057304E0,1.9977398E1,4.0666146E0,2.1333945E3,2.0244532E1,5.807743E1,3.9346996E1,5.682383E1,4.0545868E1,1.0556835E0,1.0016204E0,1.7763407E1,2.2139916E0,2.9560454E0,1.1105695E0,2.1317864E3,1.6082842E0,5.452757E1,3.5498638E0,1.1158503E1,2.8188494E1],"tree_param":{"num_deleted":"0","num_feature":"108","num_nodes":"29","size_leaf_vector":"0"}},{"base_weights":[-3.550644E-2,-7.380284E-1,-8.918356E-3,-7.745154E-1,4.062608E-1,-4.416751E-1,2.6484722E-2,-8.101493E-1,5.29371E-2,7.1829844E-1,-7.9087704E-2,-7.9336536E-1,-3.175418E-1,9.198656E-3,8.9325124E-1,-8.3995956E-1,1.7546728E-1,-6.468809E-1,7.352659E-1,-8.267964E-1,2.144331E-2,-3.5989314E-1,6.7404807E-1,-1.673847E-2,5.8482534E-1,9.283085E-1,2.2982457E-1],"categories":[],"categories_nodes":[],"categories_segments":[],"categories_sizes":[],"default_left":[true,true,true,true,true,true,true,true,true,false,false,true,true,true,true,false,false,false,false,false,false,false,false,false,false,false,false],"id":41,"left_children":[1,3,5,7,9,11,13,15,17,-1,-1,19,21,23,25,-1,-1,-1,-1,-1,-1,-1,-1,-1,-1,-1,-1],"loss_changes":[4.4064747E1,3.9064827E0,3.4857803E1,2.5112305E0,5.5874723E-1,7.259243E0,3.1506413E1,2.5072746E0,2.5742385E0,0E0,0E0,1.2222157E0,5.652996E0,3.0814241E1,7.4295425E-1,0E0,0E0,0E0,0E0,0E0,0E0,0E0,0E0,0E0,0E0,0E0,0E0],"parents":[2147483647,0,0,1,1,2,2,3,3,4,4,5,5,6,6,7,7,8,8,11,11,12,12,13,13,14,14],"right_children":[2,4,6,8,10,12,14,16,18,-1,-1,20,22,24,26,-1,-1,-1,-1,-1,-1,-1,-1,-1,-1,-1,-1],"split_conditions":[2.45E1,6.179E3,8.5E0,5E-1,2.584455E5,3.65E1,7.0735E3,5E-1,5E-1,7.182985E-2,-7.908771E-3,5E-1,1.7915E3,1.748E3,6.95E1,-8.399596E-2,1.7546728E-2,-6.4688094E-2,7.352659E-2,-8.2679644E-2,2.1443309E-3,-3.5989314E-2,6.740481E-2,-1.6738471E-3,5.8482535E-2,9.283085E-2,2.2982458E-2],"split_indices":[0,3,2,52,1,0,3,8,53,0,0,50,4,4,0,0,0,0,0,0,0,0,0,0,0,0,0],"split_type":[0,0,0,0,0,0,0,0,0,0,0,0,0,0,0,0,0,0,0,0,0,0,0,0,0,0,0],"sum_hessian":[2.3584417E3,8.502831E1,2.2734133E3,8.271403E1,2.3142848E0,1.7105176E2,2.1023616E3,7.931909E1,3.3949378E0,1.1165038E0,1.1977811E0,4.321767E1,1.2783408E2,2.0622444E3,4.011706E1,7.713394E1,2.1851523E0,1.7016366E0,1.6933011E0,4.150023E1,1.7174399E0,1.2320882E2,4.6252637E0,1.9742574E3,8.798702E1,3.7724342E1,2.392719E0],"tree_param":{"num_deleted":"0","num_feature":"108","num_nodes":"27","size_leaf_vector":"0"}},{"base_weights":[-3.420127E-2,-1.4966305E-1,1.2738305E-1,-9.581389E-2,-6.731463E-1,1.068069E-1,9.403057E-1,-1.22135215E-1,9.5588726E-1,-7.009393E-1,4.3768525E-1,9.366404E-2,1.3148053E0,9.7389036E-1,8.4053464E-2,-2.924534E-1,-3.42124E-2,1.2842563E0,-5.366331E-1,-7.258916E-1,5.522746E-1,7.1089596E-1,-7.28625E-2,1.069934E-1,-1.0963575E0,1.0131589E0,4.460187E-1],"categories":[],"categories_nodes":[],"categories_segments":[],"categories_sizes":[],"default_left":[true,true,true,true,true,true,true,true,true,true,true,true,false,true,false,false,false,false,false,false,false,false,false,false,false,false,false],"id":42,"left_children":[1,3,5,7,9,11,13,15,17,19,21,23,-1,25,-1,-1,-1,-1,-1,-1,-1,-1,-1,-1,-1,-1,-1],"loss_changes":[4.4328175E1,3.899517E1,1.6464598E1,3.4928566E1,4.2917633E0,1.5229594E1,6.174965E-1,1.837516E1,1.5793058E1,4.3506317E0,5.7713795E-1,1.5308183E1,0E0,3.124237E-2,0E0,0E0,0E0,0E0,0E0,0E0,0E0,0E0,0E0,0E0,0E0,0E0,0E0],"parents":[2147483647,0,0,1,1,2,2,3,3,4,4,5,5,6,6,7,7,8,8,9,9,10,10,11,11,13,13],"right_children":[2,4,6,8,10,12,14,16,18,20,22,24,-1,26,-1,-1,-1,-1,-1,-1,-1,-1,-1,-1,-1,-1,-1],"split_conditions":[1.05E1,5E-1,7.0735E3,5E-1,8.0285E3,2.3845E3,7.35E1,3.75E1,5E-1,2.2185E3,2.582005E5,5E-1,1.3148053E-1,3.4569E4,8.405346E-3,-2.9245341E-2,-3.42124E-3,1.2842564E-1,-5.366331E-2,-7.258916E-2,5.522746E-2,7.1089596E-2,-7.28625E-3,1.069934E-2,-1.0963575E-1,1.0131589E-1,4.460187E-2],"split_indices":[2,35,3,51,3,4,0,0,64,4,1,55,0,3,0,0,0,0,0,0,0,0,0,0,0,0,0],"split_type":[0,0,0,0,0,0,0,0,0,0,0,0,0,0,0,0,0,0,0,0,0,0,0,0,0,0,0],"sum_hessian":[2.373956E3,1.3846288E3,9.893272E2,1.256554E3,1.2807489E2,9.660076E2,2.3319551E1,1.2267358E3,2.9818113E1,1.2530867E2,2.766228E0,9.566767E2,9.330975E0,2.230721E1,1.0123401E0,4.1687234E2,8.0986346E2,2.4555256E1,5.2628584E0,1.2327496E2,2.0337064E0,1.5463223E0,1.2199056E0,9.4697974E2,9.696971E0,1.9906996E1,2.4002154E0],"tree_param":{"num_deleted":"0","num_feature":"108","num_nodes":"27","size_leaf_vector":"0"}},{"base_weights":[-2.8542228E-2,-5.48559E-3,-6.962025E-1,-2.3640744E-2,7.7510166E-1,-7.257676E-1,6.475074E-1,-4.861712E-2,5.410018E-1,8.477158E-1,7.464435E-2,-7.802815E-1,4.5222323E-2,-3.4466624E-2,-1.4169762E0,1.0071036E0,-1.24661E-1,9.241444E-1,4.342485E-1,-4.1717315E-1,7.43642E-1,-7.974379E-1,-1.411973E-1,-6.037387E-1,1.128197E0],"categories":[],"categories_nodes":[],"categories_segments":[],"categories_sizes":[],"default_left":[true,true,true,true,true,true,false,true,true,true,true,true,true,false,false,false,false,false,false,false,false,false,false,false,false],"id":43,"left_children":[1,3,5,7,9,11,-1,13,15,17,19,21,23,-1,-1,-1,-1,-1,-1,-1,-1,-1,-1,-1,-1],"loss_changes":[3.591807E1,3.199833E1,3.5641136E0,3.1141026E1,2.547104E0,3.2581482E0,0E0,4.0879623E1,2.9148327E1,1.0651093E0,2.2571223E0,6.7323685E-1,4.904303E0,0E0,0E0,0E0,0E0,0E0,0E0,0E0,0E0,0E0,0E0,0E0,0E0],"parents":[2147483647,0,0,1,1,2,2,3,3,4,4,5,5,7,7,8,8,9,9,10,10,11,11,12,12],"right_children":[2,4,6,8,10,12,-1,14,16,18,20,22,24,-1,-1,-1,-1,-1,-1,-1,-1,-1,-1,-1,-1],"split_conditions":[5E-1,5.0955E3,7.0735E3,1.748E3,5E-1,4.75E1,6.4750746E-2,1.5685E3,1.9785E3,6.25E1,8.0285E3,5E-1,4.2E1,-3.4466626E-3,-1.4169763E-1,1.00710355E-1,-1.24661E-2,9.241444E-2,4.3424852E-2,-4.1717317E-2,7.43642E-2,-7.9743795E-2,-1.4119729E-2,-6.0373873E-2,1.12819694E-1],"split_indices":[56,3,3,4,57,0,0,4,4,0,3,27,5,0,0,0,0,0,0,0,0,0,0,0,0],"split_type":[0,0,0,0,0,0,0,0,0,0,0,0,0,0,0,0,0,0,0,0,0,0,0,0,0],"sum_hessian":[2.3324993E3,2.2556133E3,7.688598E1,2.2052917E3,5.0321682E1,7.568069E1,1.2052954E0,2.1127502E3,9.254142E1,4.540451E1,4.917169E0,7.067169E1,5.008989E0,2.0921401E3,2.0610086E1,5.412781E1,3.841361E1,3.727854E1,8.125971E0,3.0507865E0,1.8663827E0,6.8582794E1,2.0889044E0,3.4088123E0,1.6001765E0],"tree_param":{"num_deleted":"0","num_feature":"108","num_nodes":"25","size_leaf_vector":"0"}},{"base_weights":[-1.6361004E-2,-6.3682336E-1,1.236916E-2,-7.5629246E-1,-1.4369632E-1,3.4079667E-2,-6.4424336E-1,-8.0112314E-1,3.9432716E-1,-4.793456E-1,2.2958551E-1,-5.502871E-2,1.6742265E-1,-8.096344E-1,-3.4877825E-1,-8.212368E-1,2.3312224E-1,-2.0564254E-1,7.5085974E-1,-7.5580347E-1,-1.9230103E-1,-1.7860629E-1,1.0477556E0,-8.165904E-2,5.9132326E-1,2.173547E-1,-1.1409096E-1,-8.420736E-1,1.2432805E-2,-6.7200446E-1,1.5260345E-1],"categories":[],"categories_nodes":[],"categories_segments":[],"categories_sizes":[],"default_left":[true,true,true,true,true,true,true,true,true,true,true,true,true,true,true,false,false,false,false,false,false,false,false,false,false,false,false,false,false,false,false],"id":44,"left_children":[1,3,5,7,9,11,13,15,17,19,21,23,25,27,29,-1,-1,-1,-1,-1,-1,-1,-1,-1,-1,-1,-1,-1,-1,-1,-1],"loss_changes":[4.1360672E1,5.9407043E0,3.164215E1,4.567524E0,2.77373E0,2.5532627E1,3.189333E0,1.8486023E0,9.58938E-1,7.686796E-1,3.7745728E0,2.2224352E1,1.2123453E1,1.2049198E0,4.5191383E0,0E0,0E0,0E0,0E0,0E0,0E0,0E0,0E0,0E0,0E0,0E0,0E0,0E0,0E0,0E0,0E0],"parents":[2147483647,0,0,1,1,2,2,3,3,4,4,5,5,6,6,7,7,8,8,9,9,10,10,11,11,12,12,13,13,14,14],"right_children":[2,4,6,8,10,12,14,16,18,20,22,24,26,28,30,-1,-1,-1,-1,-1,-1,-1,-1,-1,-1,-1,-1,-1,-1,-1,-1],"split_conditions":[2.55E1,4.55E1,5E-1,4.2435E3,5E-1,4.05E1,5.15E1,1.8815E3,2.25E1,5E-1,5E-1,5E-1,5E-1,5.6415E3,5E-1,-8.212368E-2,2.3312224E-2,-2.0564254E-2,7.5085975E-2,-7.558035E-2,-1.9230103E-2,-1.7860629E-2,1.0477556E-1,-8.165904E-3,5.9132326E-2,2.173547E-2,-1.14090955E-2,-8.420736E-2,1.2432806E-3,-6.7200445E-2,1.5260345E-2],"split_indices":[0,5,43,3,33,5,5,4,0,54,30,51,64,3,26,0,0,0,0,0,0,0,0,0,0,0,0,0,0,0,0],"split_type":[0,0,0,0,0,0,0,0,0,0,0,0,0,0,0,0,0,0,0,0,0,0,0,0,0,0,0,0,0,0,0],"sum_hessian":[2.3188042E3,1.0168252E2,2.2171218E3,8.142271E1,2.0259811E1,2.147078E3,7.0043785E1,7.866162E1,2.7610867E0,1.0518025E1,9.741785E0,1.287365E3,8.59713E2,4.3790936E1,2.6252848E1,7.7363045E1,1.2985717E0,1.1869364E0,1.5741502E0,4.525949E0,5.992077E0,7.0207663E0,2.7210183E0,1.2372622E3,5.0102745E1,7.303914E2,1.2932156E2,4.210511E1,1.6858275E0,1.5755457E1,1.049739E1],"tree_param":{"num_deleted":"0","num_feature":"108","num_nodes":"31","size_leaf_vector":"0"}},{"base_weights":[-2.9991966E-2,-8.395485E-2,2.4487157E-1,-1.4112845E-1,1.588762E-1,-2.5498104E-1,2.9766634E-1,-2.0236465E-1,1.592728E-1,-2.2134629E-1,2.6790655E-1,-6.458587E-1,1.04942344E-1,1.5021996E-1,4.6376538E-1,-2.4420603E-1,2.9300368E-1,-7.292805E-1,2.0396115E-1,-3.397022E-1,1.8842825E-1,-1.321617E-1,3.3909416E-1,-8.3088547E-1,2.1585552E-1,-7.7383626E-1,2.7208084E-1,2.2479078E-1,-2.1644287E-1,6.6227806E-1,9.946018E-2],"categories":[],"categories_nodes":[],"categories_segments":[],"categories_sizes":[],"default_left":[true,true,true,true,true,true,true,true,true,true,true,true,true,true,true,false,false,false,false,false,false,false,false,false,false,false,false,false,false,false,false],"id":45,"left_children":[1,3,5,7,9,11,13,15,17,19,21,23,25,27,29,-1,-1,-1,-1,-1,-1,-1,-1,-1,-1,-1,-1,-1,-1,-1,-1],"loss_changes":[3.450693E1,2.7015467E1,1.0151876E1,2.8991287E1,1.5439286E1,5.2750974E0,8.399271E0,2.7184898E1,1.0755868E1,4.100338E0,8.269032E0,3.0307236E0,3.1672122E0,5.097858E0,1.1659695E1,0E0,0E0,0E0,0E0,0E0,0E0,0E0,0E0,0E0,0E0,0E0,0E0,0E0,0E0,0E0,0E0],"parents":[2147483647,0,0,1,1,2,2,3,3,4,4,5,5,6,6,7,7,8,8,9,9,10,10,11,11,12,12,13,13,14,14],"right_children":[2,4,6,8,10,12,14,16,18,20,22,24,26,28,30,-1,-1,-1,-1,-1,-1,-1,-1,-1,-1,-1,-1,-1,-1,-1,-1],"split_conditions":[5E-1,5E-1,5E-1,5E-1,1.06977E5,5E-1,4.35E1,5E-1,2.55E1,5.15E1,3.15E1,2.39662E5,5E-1,2.809875E5,5.45E1,-2.4420602E-2,2.9300367E-2,-7.292805E-2,2.0396115E-2,-3.397022E-2,1.8842826E-2,-1.32161705E-2,3.3909418E-2,-8.308855E-2,2.1585552E-2,-7.738363E-2,2.7208084E-2,2.2479078E-2,-2.1644287E-2,6.622781E-2,9.9460175E-3],"split_indices":[42,48,63,50,1,61,0,58,0,0,0,1,105,1,0,0,0,0,0,0,0,0,0,0,0,0,0,0,0,0,0],"split_type":[0,0,0,0,0,0,0,0,0,0,0,0,0,0,0,0,0,0,0,0,0,0,0,0,0,0,0,0,0,0,0],"sum_hessian":[2.324066E3,1.9432498E3,3.8081607E2,1.5732526E3,3.6999725E2,3.6013767E1,3.448023E2,1.3071243E3,2.6612833E2,8.2224594E1,2.8777264E2,1.6883648E1,1.9130117E1,1.8366605E2,1.6113626E2,1.2057844E3,1.0133977E2,1.201001E1,2.5411832E2,6.3930458E1,1.829414E1,4.3341366E1,2.4443129E2,1.3928669E1,2.9549792E0,2.476947E0,1.6653172E1,1.5294704E2,3.0719002E1,1.03772125E2,5.7364136E1],"tree_param":{"num_deleted":"0","num_feature":"108","num_nodes":"31","size_leaf_vector":"0"}},{"base_weights":[-1.3846363E-2,-8.167736E-1,3.8256913E-3,-8.583022E-1,3.9660394E-1,-4.6679433E-2,2.5210294E-1,-9.3768847E-1,-4.061376E-1,-2.1054551E-2,-4.974603E-1,3.1420875E-1,-2.0142685E-1,-9.605911E-1,-2.487944E-2,2.6387745E-1,-5.548755E-1,1.0466654E-2,-4.278312E-1,-5.2791786E-1,9.001732E-1,1.0545782E-1,4.0237314E-1,-3.09798E-1,8.649881E-1],"categories":[],"categories_nodes":[],"categories_segments":[],"categories_sizes":[],"default_left":[true,true,true,true,false,true,true,true,true,true,true,true,true,false,false,false,false,false,false,false,false,false,false,false,false],"id":46,"left_children":[1,3,5,7,-1,9,11,13,15,17,19,21,23,-1,-1,-1,-1,-1,-1,-1,-1,-1,-1,-1,-1],"loss_changes":[3.274305E1,2.8445206E0,2.8333729E1,1.3553085E0,0E0,2.1679323E1,1.0821678E1,8.2024765E-1,1.0420827E0,2.2799004E1,4.7726746E0,6.1476784E0,5.655049E0,0E0,0E0,0E0,0E0,0E0,0E0,0E0,0E0,0E0,0E0,0E0,0E0],"parents":[2147483647,0,0,1,1,2,2,3,3,5,5,6,6,7,7,8,8,9,9,10,10,11,11,12,12],"right_children":[2,4,6,8,-1,10,12,14,16,18,20,22,24,-1,-1,-1,-1,-1,-1,-1,-1,-1,-1,-1,-1],"split_conditions":[2.35E1,7.585E3,5E-1,4.55E1,3.9660394E-2,5E-1,5E-1,4.615645E5,8.5E0,5E-1,4.2435E3,3.65E1,7.82E2,-9.605911E-2,-2.4879442E-3,2.6387746E-2,-5.548755E-2,1.0466654E-3,-4.2783123E-2,-5.2791785E-2,9.001732E-2,1.0545782E-2,4.0237315E-2,-3.0979801E-2,8.649881E-2],"split_indices":[0,3,42,5,0,46,12,1,2,45,3,0,4,0,0,0,0,0,0,0,0,0,0,0,0],"split_type":[0,0,0,0,0,0,0,0,0,0,0,0,0,0,0,0,0,0,0,0,0,0,0,0,0],"sum_hessian":[2.3063552E3,4.869482E1,2.2576604E3,4.7366314E1,1.3285067E0,1.8767081E3,3.809523E2,3.9378815E1,7.9874964E0,1.7767543E3,9.995386E1,3.3533862E2,4.5613663E1,3.836391E1,1.0149051E0,1.3104122E0,6.6770844E0,1.6498792E3,1.268752E2,9.84311E1,1.5227574E0,1.00225716E2,2.3511292E2,4.2049957E1,3.5637028E0],"tree_param":{"num_deleted":"0","num_feature":"108","num_nodes":"25","size_leaf_vector":"0"}},{"base_weights":[-2.0906538E-2,-1.7957418E-1,5.993667E-2,-6.006558E-1,-1.1940136E-1,9.680719E-2,-4.5772517E-1,-7.689891E-1,-8.0211155E-2,-1.6256334E-1,3.7225217E-1,6.9569685E-2,6.17661E-1,-5.3071475E-1,2.4031907E-1,-8.0708385E-1,5.8791703E-1,-2.2845861E-1,1.2215788E0,-2.5854123E-1,2.0494394E-2,-8.214135E-1,4.4593984E-1,4.7188036E-2,7.0312965E-1,-2.5268525E-1,6.5872663E-1,-5.95858E-1,5.256679E-1,4.443558E-1,-4.3332607E-1],"categories":[],"categories_nodes":[],"categories_segments":[],"categories_sizes":[],"default_left":[true,true,true,true,true,true,true,true,true,true,true,true,true,true,true,false,false,false,false,false,false,false,false,false,false,false,false,false,false,false,false],"id":47,"left_children":[1,3,5,7,9,11,13,15,17,19,21,23,25,27,29,-1,-1,-1,-1,-1,-1,-1,-1,-1,-1,-1,-1,-1,-1,-1,-1],"loss_changes":[2.9333473E1,1.9485092E1,2.8962816E1,8.371349E0,1.4418228E1,2.0034367E1,5.269144E0,4.2281494E0,5.0345645E0,1.0945494E1,5.195894E0,1.905346E1,2.675583E0,6.6218376E0,1.6002102E0,0E0,0E0,0E0,0E0,0E0,0E0,0E0,0E0,0E0,0E0,0E0,0E0,0E0,0E0,0E0,0E0],"parents":[2147483647,0,0,1,1,2,2,3,3,4,4,5,5,6,6,7,7,8,8,9,9,10,10,11,11,12,12,13,13,14,14],"right_children":[2,4,6,8,10,12,14,16,18,20,22,24,26,28,30,-1,-1,-1,-1,-1,-1,-1,-1,-1,-1,-1,-1,-1,-1,-1,-1],"split_conditions":[3.65E1,3.95E1,6.45E1,5E-1,5E-1,1.45E1,5E-1,1.45E1,5E-1,4.85E1,8.5E0,5E-1,